{"learner":{"attributes":{"best_iteration":"15","best_ntree_limit":"16","best_score":"414.21060798012815","scikit_learn":"{\"n_estimators\": 1000, \"objective\": \"reg:squarederror\", \"max_depth\": null, \"max_leaves\": null, \"max_bin\": null, \"grow_policy\": null, \"learning_rate\": null, \"verbosity\": null, \"booster\": null, \"tree_method\": null, \"gamma\": null, \"min_child_weight\": null, \"max_delta_step\": null, \"subsample\": null, \"sampling_method\": null, \"colsample_bytree\": null, \"colsample_bylevel\": null, \"colsample_bynode\": null, \"reg_alpha\": null, \"reg_lambda\": null, \"scale_pos_weight\": null, \"base_score\": 0.5, \"missing\": NaN, \"num_parallel_tree\": null, \"random_state\": null, \"n_jobs\": null, \"monotone_constraints\": null, \"interaction_constraints\": null, \"importance_type\": null, \"gpu_id\": null, \"validate_parameters\": null, \"predictor\": null, \"enable_categorical\": false, \"feature_types\": null, \"max_cat_to_onehot\": null, \"max_cat_threshold\": null, \"eval_metric\": null, \"early_stopping_rounds\": 50, \"callbacks\": null, \"evals_result_\": {\"validation_0\": {\"rmse\": [3555.3526476967845, 2503.958500745092, 1773.785528681855, 1270.7880780521828, 929.552653827357, 701.8260697148114, 554.3297540209605, 461.2752762480074, 405.31610183253525, 374.0415811273213, 355.92549823380915, 342.84787902803487, 332.77805910725715, 329.0145747815177, 323.90212588749995, 313.8244023804051, 309.3933958379366, 307.52884152621, 304.65526304409065, 299.1352031718251, 295.8698553703441, 288.26145064229314, 284.91905636529145, 281.1170537409995, 274.4902715746542, 271.52748734970737, 270.34760953843437, 268.6905415338227, 262.80052970927085, 261.9994477237099, 260.3845843058339, 257.2145868242564, 255.49765166805432, 253.91605537937275, 250.76631876452439, 244.6795105204355, 240.27443995847204, 236.2076131867639, 233.52633929006737, 232.41283454473987, 231.93732648462617, 228.42220610089151, 226.95260186301482, 226.33687516293355, 221.6739316803192, 221.08593118817637, 220.08900019229065, 218.21333871047642, 213.44369769011584, 210.92982942147194, 210.55507282008682, 209.53849046410156, 209.0290738436187, 208.40997353975146, 208.16497392814574, 205.7160724955574, 202.51096503033014, 202.27402079528815, 200.92350856429118, 198.67553201211757, 196.10095102249113, 194.40432718539978, 192.07066897774158, 188.5192510742086, 184.55279425304442, 183.1186042683964]}, \"validation_1\": {\"rmse\": [3565.5268390135598, 2514.6160091130555, 1785.0832144324897, 1282.8919007043705, 942.5853415641783, 727.9518143267463, 592.3849535591237, 508.78206140627105, 461.0549471577132, 433.92808082356544, 423.02072363650325, 419.0386374318206, 420.39722598638804, 417.9524296791358, 415.6321046545831, 414.21060798012815, 415.02283678114725, 415.6236627730242, 417.5250253624463, 418.78530971796897, 418.9405039642966, 418.6004263268507, 422.4174141278564, 424.3416129792392, 427.00562608288925, 428.6034703797134, 431.07995449629834, 430.870288653599, 429.98530887322016, 431.3899768160848, 430.7831802232417, 430.8476136920055, 432.19450123492584, 431.54633437731235, 431.6910368130412, 430.6787511588869, 433.3857577477052, 435.5952348507294, 435.0279213531553, 435.6981525515939, 435.64648437368055, 435.4899665554824, 435.59325584794465, 435.31952213104984, 436.2230950108499, 436.6036423943602, 436.26559045514836, 436.6527609517978, 436.18858853053433, 436.1323791972889, 437.0842864905424, 437.9498094751799, 437.75535320776453, 437.1136548081265, 437.2475764413774, 437.45869449028316, 438.5297660903952, 438.25748342382457, 439.55768801877514, 439.74879050919907, 440.2215092007614, 440.24540356383017, 439.5629222210078, 440.2104064002161, 441.1441682375165, 442.0783995361356]}}, \"_estimator_type\": \"regressor\"}"},"feature_names":["month","year","weekOfYear","dayOfWeek","dayOfMonth","dayOfYear","quarter","lag365","lag729","lag1095"],"feature_types":["int","int","int","int","int","int","int","float","float","float"],"gradient_booster":{"model":{"gbtree_model_param":{"num_parallel_tree":"1","num_trees":"66","size_leaf_vector":"0"},"tree_info":[0,0,0,0,0,0,0,0,0,0,0,0,0,0,0,0,0,0,0,0,0,0,0,0,0,0,0,0,0,0,0,0,0,0,0,0,0,0,0,0,0,0,0,0,0,0,0,0,0,0,0,0,0,0,0,0,0,0,0,0,0,0,0,0,0,0],"trees":[{"base_weights":[5.0455435E3],"categories":[],"categories_nodes":[],"categories_segments":[],"categories_sizes":[],"default_left":[0],"id":0,"left_children":[-1],"loss_changes":[0E0],"parents":[2147483647],"right_children":[-1],"split_conditions":[1.5136631E3],"split_indices":[0],"split_type":[0],"sum_hessian":[1.455E3],"tree_param":{"num_deleted":"0","num_feature":"10","num_nodes":"1","size_leaf_vector":"0"}},{"base_weights":[3.5329202E3],"categories":[],"categories_nodes":[],"categories_segments":[],"categories_sizes":[],"default_left":[0],"id":1,"left_children":[-1],"loss_changes":[0E0],"parents":[2147483647],"right_children":[-1],"split_conditions":[1.0598761E3],"split_indices":[0],"split_type":[0],"sum_hessian":[1.455E3],"tree_param":{"num_deleted":"0","num_feature":"10","num_nodes":"1","size_leaf_vector":"0"}},{"base_weights":[2.473772E3],"categories":[],"categories_nodes":[],"categories_segments":[],"categories_sizes":[],"default_left":[0],"id":2,"left_children":[-1],"loss_changes":[0E0],"parents":[2147483647],"right_children":[-1],"split_conditions":[7.421316E2],"split_indices":[0],"split_type":[0],"sum_hessian":[1.455E3],"tree_param":{"num_deleted":"0","num_feature":"10","num_nodes":"1","size_leaf_vector":"0"}},{"base_weights":[1.7321501E3],"categories":[],"categories_nodes":[],"categories_segments":[],"categories_sizes":[],"default_left":[0],"id":3,"left_children":[-1],"loss_changes":[0E0],"parents":[2147483647],"right_children":[-1],"split_conditions":[5.196451E2],"split_indices":[0],"split_type":[0],"sum_hessian":[1.455E3],"tree_param":{"num_deleted":"0","num_feature":"10","num_nodes":"1","size_leaf_vector":"0"}},{"base_weights":[1.212862E3],"categories":[],"categories_nodes":[],"categories_segments":[],"categories_sizes":[],"default_left":[0],"id":4,"left_children":[-1],"loss_changes":[0E0],"parents":[2147483647],"right_children":[-1],"split_conditions":[3.6385864E2],"split_indices":[0],"split_type":[0],"sum_hessian":[1.455E3],"tree_param":{"num_deleted":"0","num_feature":"10","num_nodes":"1","size_leaf_vector":"0"}},{"base_weights":[8.4925336E2,8.558385E2,7.269019E2,8.3987616E2,9.033127E2,3.388379E1,7.4401776E2,8.404826E2,1.0366284E2,6.9693695E2,9.299033E2,-1.3483716E2,1.8566284E2,5.8186615E2,8.21633E2,6.563901E2,8.4435876E2,7.181714E2,-8.683716E1,2.0666284E2,9.316785E2,6.19684E2,4.7550457E1,8.3913916E2,-2.6837158E1,1.9162842E1,6.811127E2,6.5776544E2,8.476293E2,7.3299255E2,6.266284E1,2.4966284E2,9.331694E2,6.593127E2,8.288379E1,-2.5837158E1,9.716284E1,8.718183E2,5.138506E2,6.9414545E2,1.8416284E2,3.6028497E2,7.725706E2,8.482701E2,3.5255045E2,8.1722455E2,5.846409E2,6.7472876E2,1.4466284E2,5.8493805E2,4.366284E1],"categories":[],"categories_nodes":[],"categories_segments":[],"categories_sizes":[],"default_left":[1,1,1,1,1,1,0,0,0,1,1,0,0,0,1,1,0,1,0,0,0,0,1,1,0,0,1,1,1,1,0,0,0,1,0,0,0,0,1,0,0,0,0,0,0,0,0,0,0,0,0],"id":5,"left_children":[1,3,5,7,9,11,13,15,-1,17,19,-1,-1,21,23,25,27,29,-1,-1,31,33,35,37,-1,-1,39,41,43,45,-1,-1,-1,47,-1,-1,-1,-1,49,-1,-1,-1,-1,-1,-1,-1,-1,-1,-1,-1,-1],"loss_changes":[5.5104E5,2.84032E5,9.3558E5,3.79008E5,1.179328E6,1.01859164E5,5.16168E5,1.9008E5,0E0,7.61372E5,1.82336E5,0E0,0E0,5.56527E5,7.80048E5,3.96548E5,6.368E4,3.524E5,0E0,0E0,6.2912E4,5.19715E5,1.3433217E4,8.352E4,0E0,0E0,3.408E4,4.73006E5,1.7216E4,2.2052E4,0E0,0E0,0E0,1.0074E5,0E0,0E0,0E0,0E0,2.0843125E5,0E0,0E0,0E0,0E0,0E0,0E0,0E0,0E0,0E0,0E0,0E0,0E0],"parents":[2147483647,0,0,1,1,2,2,3,3,4,4,5,5,6,6,7,7,9,9,10,10,13,13,14,14,15,15,16,16,17,17,20,20,21,21,22,22,23,23,26,26,27,27,28,28,29,29,33,33,38,38],"right_children":[2,4,6,8,10,12,14,16,-1,18,20,-1,-1,22,24,26,28,30,-1,-1,32,34,36,38,-1,-1,40,42,44,46,-1,-1,-1,48,-1,-1,-1,-1,50,-1,-1,-1,-1,-1,-1,-1,-1,-1,-1,-1,-1],"split_conditions":[5.4975E3,5.2275E3,1.5E0,5.226E3,4.5E0,3E0,5.575E3,4.6205E3,3.1098854E1,5.4095E3,5.5E0,-4.045115E1,5.5698856E1,5.7495E3,5E1,3E0,4.2995E3,5.452E3,-2.605115E1,6.1998856E1,4.0335E3,5.5645E3,2.0165E3,2.75E1,-8.051147E0,5.7488527E0,1.15E1,1.25E1,3.645E2,2.5E0,1.8798853E1,7.489886E1,2.7995084E2,5.31E3,2.4865137E1,-7.7511477E0,2.9148853E1,2.615455E2,8.5E0,2.0824364E2,5.5248856E1,1.08085495E2,2.317712E2,2.5448103E2,1.0576514E2,2.4516737E2,1.7539229E2,2.0241864E2,4.3398853E1,1.7548141E2,1.3098853E1],"split_indices":[8,7,4,7,4,0,8,9,0,9,5,0,0,7,2,2,7,8,0,0,8,8,1,4,0,0,0,4,5,4,0,0,0,9,0,0,0,0,0,0,0,0,0,0,0,0,0,0,0,0,0],"split_type":[0,0,0,0,0,0,0,0,0,0,0,0,0,0,0,0,0,0,0,0,0,0,0,0,0,0,0,0,0,0,0,0,0,0,0,0,0,0,0,0,0,0,0,0,0,0,0,0,0,0,0],"sum_hessian":[1.455E3,1.375E3,8E1,1.043E3,3.32E2,2E0,7.8E1,1.042E3,1E0,4.1E1,2.91E2,1E0,1E0,2.8E1,5E1,2.5E1,1.017E3,4E1,1E0,1E0,2.9E2,2.6E1,2E0,4.9E1,1E0,1E0,2.4E1,2.1E1,9.96E2,3.9E1,1E0,1E0,2.89E2,2.4E1,2E0,1E0,1E0,4.3E1,6E0,2.3E1,1E0,7E0,1.4E1,9.94E2,2E0,2.2E1,1.7E1,2.3E1,1E0,5E0,1E0],"tree_param":{"num_deleted":"0","num_feature":"10","num_nodes":"51","size_leaf_vector":"0"}},{"base_weights":[5.962494E2,6.416859E2,5.818853E2,6.3182574E2,9.038903E2,4.4569708E2,5.871864E2,6.477808E2,4.281916E2,3.174066E2,1.01083545E3,4.7405402E2,-1.1877018E2,5.470544E2,6.057208E2,6.399087E2,8.9149176E2,1.9931316E2,5.140713E2,-5.7222656E1,4.8774005E2,7.192236E1,-2.5007764E2,5.5018524E2,2.5631511E0,1.7022705E2,6.0729675E2,6.431581E2,1.04916664E2,2.3503728E2,9.589868E1,5.430283E2,-3.5776367E0,5.0416818E2,1.0064225E2,5.551797E2,2.2828627E2,-7.757764E1,8.142236E1,-2.3822266E1,3.761875E2,6.145576E2,4.752801E2,6.581976E2,5.361755E2,1.796875E2,-2.23125E1,1.6958333E2,-6.2577637E1,1.86875E1,5.7277264E2,4.0295554E2,6.0015356E2,3.0904102E2,-1.5807764E2,2.8387125E2,5.616794E2,-4.6770184E1,3.476629E2,2.86875E1,-6.44209E1,6.0803186E2,8.0958563E2,1.00936646E2,5.014876E2],"categories":[],"categories_nodes":[],"categories_segments":[],"categories_sizes":[],"default_left":[0,1,0,1,0,0,0,1,1,0,0,0,1,1,0,1,0,0,1,0,1,0,0,0,1,1,1,1,1,0,1,0,0,1,1,1,0,0,0,1,0,1,0,0,0,0,0,0,0,0,0,0,0,0,0,0,0,0,0,0,0,0,0,0,0],"id":6,"left_children":[1,3,5,7,9,11,13,15,17,-1,-1,19,21,23,25,27,-1,29,31,-1,33,-1,-1,35,37,39,41,43,45,-1,47,49,-1,51,53,55,57,-1,-1,59,-1,61,63,-1,-1,-1,-1,-1,-1,-1,-1,-1,-1,-1,-1,-1,-1,-1,-1,-1,-1,-1,-1,-1,-1],"loss_changes":[5.76832E5,3.07936E5,5.44704E5,7.98048E5,3.063695E5,7.92605E5,4.66048E5,1.4672E4,4.28251E5,0E0,0E0,3.47837E5,9.3104234E4,5.93552E5,3.93504E5,4.52304E5,0E0,1.070975E4,2.867445E5,0E0,2.22709E5,0E0,0E0,4.31128E5,2.5276072E4,1.6882756E5,3.99024E5,1.24952E5,3.2548371E4,0E0,5.7321215E4,2.70027E5,0E0,1.56477E5,2.1060319E5,4.41888E5,2.4610747E5,0E0,0E0,8.243549E3,0E0,3.732E5,3.61427E5,0E0,0E0,0E0,0E0,0E0,0E0,0E0,0E0,0E0,0E0,0E0,0E0,0E0,0E0,0E0,0E0,0E0,0E0,0E0,0E0,0E0,0E0],"parents":[2147483647,0,0,1,1,2,2,3,3,4,4,5,5,6,6,7,7,8,8,11,11,12,12,13,13,14,14,15,15,17,17,18,18,20,20,23,23,24,24,25,25,26,26,27,27,28,28,30,30,31,31,33,33,34,34,35,35,36,36,39,39,41,41,42,42],"right_children":[2,4,6,8,10,12,14,16,18,-1,-1,20,22,24,26,28,-1,30,32,-1,34,-1,-1,36,38,40,42,44,46,-1,48,50,-1,52,54,56,58,-1,-1,60,-1,62,64,-1,-1,-1,-1,-1,-1,-1,-1,-1,-1,-1,-1,-1,-1,-1,-1,-1,-1,-1,-1,-1,-1],"split_conditions":[4.995E3,5.581E3,4.803E3,5.316E3,4.3275E3,4.792E3,5.0535E3,5.2705E3,3.5E0,9.522198E1,3.0325064E2,4.312E3,6E0,5.756E3,5.0055E3,5.259E3,2.6744754E2,5.0775E3,4.5E0,-1.7166798E1,2.95E1,2.157671E1,-7.502329E1,5.0455E3,2.25E1,7.5E0,5.4835E3,5.5E0,7E0,7.0511185E1,1.5E0,5.32E3,-1.0732911E0,2.05E1,3.5E0,1.5E0,5.0495E3,-2.3273293E1,2.442671E1,6.5E0,1.12856255E2,5.394E3,5.494E3,1.9745927E2,1.6085265E2,5.3906254E1,-6.6937504E0,5.0875E1,-1.8773293E1,5.6062503E0,1.718318E2,1.20886665E2,1.8004608E2,9.271231E1,-4.7423294E1,8.516138E1,1.6850381E2,-1.4031055E1,1.04298874E2,8.606251E0,-1.9326271E1,1.8240956E2,2.428757E2,3.0280994E1,1.5044629E2],"split_indices":[8,9,9,9,8,9,7,9,0,0,0,7,0,9,8,9,0,7,3,0,4,0,0,7,2,0,8,3,0,0,0,9,0,4,0,4,7,0,0,0,0,8,8,0,0,0,0,0,0,0,0,0,0,0,0,0,0,0,0,0,0,0,0,0,0],"split_type":[0,0,0,0,0,0,0,0,0,0,0,0,0,0,0,0,0,0,0,0,0,0,0,0,0,0,0,0,0,0,0,0,0,0,0,0,0,0,0,0,0,0,0,0,0,0,0,0,0,0,0,0,0,0,0,0,0,0,0,0,0,0,0,0,0],"sum_hessian":[1.455E3,3.39E2,1.116E3,3.3E2,9E0,4.5E1,1.071E3,3.04E2,2.6E1,2E0,7E0,4.3E1,2E0,3.48E2,7.23E2,2.98E2,6E0,8E0,1.8E1,1E0,4.2E1,1E0,1E0,3.46E2,2E0,3E0,7.2E2,2.96E2,2E0,5E0,3E0,1.7E1,1E0,4E1,2E0,3.4E2,6E0,1E0,1E0,2E0,1E0,6.79E2,4.1E1,2.55E2,4.1E1,1E0,1E0,2E0,1E0,1E0,1.6E1,2.2E1,1.8E1,1E0,1E0,9E0,3.31E2,2E0,4E0,1E0,1E0,6.61E2,1.8E1,3E0,3.8E1],"tree_param":{"num_deleted":"0","num_feature":"10","num_nodes":"65","size_leaf_vector":"0"}},{"base_weights":[4.1921463E2,4.2713104E2,3.5640073E2,4.201814E2,4.963506E2,5.8057526E2,3.4165555E2,4.2841565E2,3.0935553E2,3.9177008E2,6.053785E2,3.466943E2,-3.9283527E1,4.6343607E2,4.078539E2,2.6378592E2,5.9193414E2,6.876953E1,4.136135E2,2.4434612E2,6.378955E2,6.671035E1,3.5348932E2,4.8138184E1,-1.0706348E2,4.16412E2,5.013057E2,3.8690543E2,4.6291718E2,-3.655295E1,3.0019287E2,6.2518726E2,1.2970166E2,-1.6582959E2,1.6887671E2,6.7128766E2,3.7518884E2,2.8691083E2,1.576123E1,6.532923E2,3.052079E2,1.01029175E2,-3.528247E1,3.3366638E2,4.6408957E2,4.3141483E2,1.8703513E2,7.949088E1,5.0489322E2,3.957932E2,2.5472282E2,4.7855576E2,2.3548619E2,1.3793823E2,-2.891515E2,2.0903795E2,4.1242902E2,6.648733E2,1.3400635E2,2.8005615E1,3.9630432E2,5.666455E1,3.3030627E2,3.4624576E2,9.104712E1,3.5083963E2,1.601807E2,4.252832E1,4.830412E2],"categories":[],"categories_nodes":[],"categories_segments":[],"categories_sizes":[],"default_left":[1,1,1,1,1,0,1,1,1,0,0,1,1,1,1,1,0,1,0,1,1,1,1,0,0,1,0,1,1,0,1,0,0,0,0,0,0,0,0,0,1,0,0,1,0,0,0,0,0,0,0,0,0,0,0,0,0,0,0,0,0,0,0,0,0,0,0,0,0],"id":7,"left_children":[1,3,5,7,9,-1,11,13,15,17,19,21,23,25,27,29,31,33,35,37,39,41,43,-1,-1,45,47,49,51,53,55,57,-1,-1,-1,-1,59,61,-1,-1,63,-1,-1,65,67,-1,-1,-1,-1,-1,-1,-1,-1,-1,-1,-1,-1,-1,-1,-1,-1,-1,-1,-1,-1,-1,-1,-1,-1],"loss_changes":[5.7176E5,4.1104E5,3.6027E5,9.41552E5,1.039876E6,0E0,3.22652E5,5.98048E5,9.384005E5,3.94882E5,4.66336E5,2.78916E5,2.293016E4,4.98216E5,6.2488E5,8.310535E5,8.798975E4,1.4543003E5,3.02599E5,5.3855875E4,4.6482E4,2.106593E4,1.84974E5,0E0,0E0,5.49072E5,2.8522E5,4.99512E5,5.52412E5,4.3657103E5,5.992555E5,1.0583325E5,0E0,0E0,0E0,0E0,3.6278E5,3.1241531E4,0E0,0E0,3.6301562E3,0E0,0E0,3.4601E5,1.472325E5,0E0,0E0,0E0,0E0,0E0,0E0,0E0,0E0,0E0,0E0,0E0,0E0,0E0,0E0,0E0,0E0,0E0,0E0,0E0,0E0,0E0,0E0,0E0,0E0],"parents":[2147483647,0,0,1,1,2,2,3,3,4,4,6,6,7,7,8,8,9,9,10,10,11,11,12,12,13,13,14,14,15,15,16,16,17,17,18,18,19,19,20,20,21,21,22,22,25,25,26,26,27,27,28,28,29,29,30,30,31,31,36,36,37,37,40,40,43,43,44,44],"right_children":[2,4,6,8,10,-1,12,14,16,18,20,22,24,26,28,30,32,34,36,38,40,42,44,-1,-1,46,48,50,52,54,56,58,-1,-1,-1,-1,60,62,-1,-1,64,-1,-1,66,68,-1,-1,-1,-1,-1,-1,-1,-1,-1,-1,-1,-1,-1,-1,-1,-1,-1,-1,-1,-1,-1,-1,-1,-1],"split_conditions":[3.235E2,2.955E2,2.5E0,2.745E2,1.55E1,1.7417258E2,5.598E3,1.15E1,5.0025E3,4.506E3,5.225E3,3.5E0,1.15E1,5.5E0,5.191E3,3.5E0,5.46E3,2.0155E3,4.6665E3,5.5E0,5.444E3,3.375E2,3.605E2,1.4441456E1,-3.2119045E1,5.4655E3,4.2115E3,5.129E3,5.512E3,5.398E3,3.5E0,4.966E3,3.89105E1,-4.974888E1,5.0663013E1,2.013863E2,4.74E3,4.592E3,4.728369E0,1.959877E2,3E0,3.0308754E1,-1.0584742E1,5.15E1,4.6355E3,1.2942445E2,5.611054E1,2.3847265E1,1.5146797E2,1.1873797E2,7.641685E1,1.4356673E2,7.064586E1,4.138147E1,-8.674545E1,6.2711388E1,1.2372871E2,1.9946199E2,4.0201904E1,8.401685E0,1.18891304E2,1.6999367E1,9.909189E1,1.0387373E2,2.7314137E1,1.0525189E2,4.805421E1,1.2758496E1,1.4491237E2],"split_indices":[5,5,4,5,4,0,8,4,9,7,9,4,0,4,7,4,8,1,7,3,8,5,5,0,0,8,7,7,8,7,3,7,0,0,0,0,7,9,0,0,3,0,0,2,7,0,0,0,0,0,0,0,0,0,0,0,0,0,0,0,0,0,0,0,0,0,0,0,0],"split_type":[0,0,0,0,0,0,0,0,0,0,0,0,0,0,0,0,0,0,0,0,0,0,0,0,0,0,0,0,0,0,0,0,0,0,0,0,0,0,0,0,0,0,0,0,0,0,0,0,0,0,0,0,0,0,0,0,0,0,0,0,0,0,0,0,0,0,0,0,0],"sum_hessian":[1.455E3,1.287E3,1.68E2,1.176E3,1.11E2,8E0,1.6E2,1.092E3,8.4E1,5.9E1,5.2E1,1.58E2,2E0,3.96E2,6.96E2,7.4E1,1E1,4E0,5.5E1,5E0,4.7E1,4E0,1.54E2,1E0,1E0,1.82E2,2.14E2,5.1E2,1.86E2,8E0,6.6E1,9E0,1E0,1E0,3E0,5E0,5E1,4E0,1E0,4.4E1,3E0,3E0,1E0,1.34E2,2E1,1.7E2,1.2E1,2E0,2.12E2,4.76E2,3.4E1,1.73E2,1.3E1,5E0,3E0,3.8E1,2.8E1,8E0,1E0,3E0,4.7E1,1E0,3E0,2E0,1E0,1.21E2,1.3E1,1E0,1.9E1],"tree_param":{"num_deleted":"0","num_feature":"10","num_nodes":"69","size_leaf_vector":"0"}},{"base_weights":[2.951362E2,3.2209344E2,2.8263998E2,3.1584415E2,5.09793E2,2.2542429E2,2.91969E2,3.2285944E2,1.426689E2,3.2860266E2,6.664146E2,2.9700992E2,1.6519601E2,5.186602E2,2.892285E2,5.3938544E2,3.1739886E2,-1.0820764E2,1.9647122E2,5.584253E1,3.5959088E2,7.258579E2,1.8459912E2,6.5050415E1,3.2388348E2,1.3342508E2,3.774271E2,6.498489E2,1.9221216E2,5.3940384E1,2.9196207E2,-7.4666115E1,3.2138657E2,-2.2972852E2,8.875488E0,2.3841219E2,5.6518654E1,-1.6532634E2,1.6939705E2,2.9660196E2,6.180337E2,-1.0735848E2,1.5299637E2,6.039148E1,5.0467215E2,-6.3007812E0,2.604834E2,-7.605029E1,4.2593228E2,3.0041986E2,2.2981575E2,-2.3595345E2,1.11509926E2,3.092149E2,4.0147968E2,1.3432861E1,-1.19628906E-1,2.9018228E2,6.2326416E1,-5.654362E1,1.5074138E2,2.0849207E2,6.0804688E1,-4.1984863E0,3.022501E2,1.4833276E2,7.2515643E2,-3.272018E2,8.436365E1,1.3575721E0,1.8605652E2,1.0067871E1,7.381006E1,1.4099146E2,-2.0806975E2,1.4546979E2,3.0520752E2,-1.7170117E2,2.3927919E2],"categories":[],"categories_nodes":[],"categories_segments":[],"categories_sizes":[],"default_left":[0,1,1,1,1,1,1,1,0,1,1,0,1,1,1,0,1,1,0,0,0,0,0,1,1,1,0,0,1,1,1,1,1,0,1,1,0,0,0,0,0,1,1,1,0,0,0,1,0,0,1,0,0,0,0,0,0,0,0,0,0,0,0,0,0,0,0,0,0,0,0,0,0,0,0,0,0,0,0],"id":8,"left_children":[1,3,5,7,9,11,13,15,17,19,21,23,25,27,29,-1,31,33,35,-1,-1,-1,-1,37,39,41,43,-1,45,47,49,51,53,-1,55,57,59,-1,61,63,65,67,69,71,-1,-1,-1,73,-1,75,77,-1,-1,-1,-1,-1,-1,-1,-1,-1,-1,-1,-1,-1,-1,-1,-1,-1,-1,-1,-1,-1,-1,-1,-1,-1,-1,-1,-1],"loss_changes":[3.9944E5,3.7152E5,4.69552E5,4.90912E5,1.4993275E5,5.76099E5,3.8364E5,3.30116E5,2.7771678E5,4.7538375E4,3.78515E4,3.84114E5,4.95807E5,2.605275E5,5.316E5,0E0,6.74384E5,5.895113E4,8.044119E4,0E0,0E0,0E0,0E0,2.2031811E5,2.821325E5,3.5572138E5,3.7293412E5,0E0,5.5852156E4,5.6430256E5,3.73008E5,1.7645034E5,2.77504E5,0E0,1.24589264E2,9.130575E4,6.1788633E4,0E0,1.2795219E4,9.4712E4,9.3698125E4,2.8049694E5,3.3563175E5,1.9579746E3,0E0,0E0,0E0,2.8721966E5,0E0,5.02336E5,4.40056E5,0E0,0E0,0E0,0E0,0E0,0E0,0E0,0E0,0E0,0E0,0E0,0E0,0E0,0E0,0E0,0E0,0E0,0E0,0E0,0E0,0E0,0E0,0E0,0E0,0E0,0E0,0E0,0E0],"parents":[2147483647,0,0,1,1,2,2,3,3,4,4,5,5,6,6,7,7,8,8,9,9,10,10,11,11,12,12,13,13,14,14,16,16,17,17,18,18,23,23,24,24,25,25,26,26,28,28,29,29,30,30,31,31,32,32,34,34,35,35,36,36,38,38,39,39,40,40,41,41,42,42,43,43,47,47,49,49,50,50],"right_children":[2,4,6,8,10,12,14,16,18,20,22,24,26,28,30,-1,32,34,36,-1,-1,-1,-1,38,40,42,44,-1,46,48,50,52,54,-1,56,58,60,-1,62,64,66,68,70,72,-1,-1,-1,74,-1,76,78,-1,-1,-1,-1,-1,-1,-1,-1,-1,-1,-1,-1,-1,-1,-1,-1,-1,-1,-1,-1,-1,-1,-1,-1,-1,-1,-1,-1],"split_conditions":[5.1785E3,5.581E3,5.35E1,5.426E3,3.5E0,2.45E1,5.65E1,7.5E0,5.472E3,8.5E0,5.5E0,5.351E3,5.412E3,5.447E3,2.5E0,1.6181564E2,9.5E0,6E0,5.193E3,1.675276E1,1.07877266E2,2.1775739E2,5.5379738E1,2.5E0,5.467E3,2.65E1,5.539E3,1.9495467E2,2.016E3,5.3995E3,3.245E2,4.5E0,2.75E1,-6.891856E1,7.5E0,8.5E0,5.526E3,-4.9597904E1,5.4795E3,5.0865E3,4.9225E3,2.0145E3,5.5E0,5.5E0,1.5140166E2,-1.8902345E0,7.814502E1,2.65E1,1.27779686E2,5.2205E3,3.255E2,-7.078603E1,3.345298E1,9.276447E1,1.2044391E2,4.0298586E0,-3.5888672E-2,8.705469E1,1.8697926E1,-1.6963087E1,4.5222416E1,6.2547623E1,1.8241407E1,-1.2595459E0,9.067503E1,4.4499832E1,2.1754694E2,-9.8160545E1,2.5309095E1,4.0727165E-1,5.581696E1,3.0203614E0,2.2143019E1,4.229744E1,-6.2420925E1,4.3640938E1,9.1562256E1,-5.1510353E1,7.178376E1],"split_indices":[8,9,5,9,3,5,5,5,9,4,3,8,7,7,0,0,5,4,7,0,0,0,0,3,8,5,8,0,1,7,5,3,4,0,0,0,7,0,7,9,7,1,4,2,0,0,0,4,0,8,5,0,0,0,0,0,0,0,0,0,0,0,0,0,0,0,0,0,0,0,0,0,0,0,0,0,0,0,0],"split_type":[0,0,0,0,0,0,0,0,0,0,0,0,0,0,0,0,0,0,0,0,0,0,0,0,0,0,0,0,0,0,0,0,0,0,0,0,0,0,0,0,0,0,0,0,0,0,0,0,0,0,0,0,0,0,0,0,0,0,0,0,0,0,0,0,0,0,0,0,0,0,0,0,0,0,0,0,0,0,0],"sum_hessian":[1.455E3,4.53E2,1.002E3,4.41E2,1.2E1,1.44E2,8.58E2,4.23E2,1.8E1,7E0,5E0,6.4E1,8E1,8E0,8.5E2,8E0,4.15E2,3E0,1.5E1,1E0,6E0,4E0,1E0,7E0,5.7E1,7.1E1,9E0,5E0,3E0,1E1,8.4E2,4E0,4.11E2,1E0,2E0,1.1E1,4E0,2E0,5E0,5.4E1,3E0,5E0,6.6E1,3E0,6E0,1E0,2E0,8E0,2E0,7.36E2,1.04E2,2E0,2E0,3.61E2,5E1,1E0,1E0,8E0,3E0,2E0,2E0,3E0,2E0,1E0,5.3E1,1E0,2E0,2E0,3E0,1.2E1,5.4E1,1E0,2E0,3E0,5E0,2.3E1,7.13E2,2E0,1.02E2],"tree_param":{"num_deleted":"0","num_feature":"10","num_nodes":"79","size_leaf_vector":"0"}},{"base_weights":[2.0788751E2,2.0603261E2,3.5278082E2,2.0923686E2,1.1647968E2,1.330217E2,4.6055655E2,4.937362E2,2.0826483E2,-4.44782E1,1.8925201E2,-2.5969824E2,2.4175806E2,4.1396484E1,4.9833292E2,2.5623674E1,2.0997548E2,1.7051392E1,-1.6012434E2,3.1358972E2,9.5873955E1,3.1650085E2,6.1514973E1,5.323362E2,9.6151855E1,9.7962456E1,-8.715511E1,2.0733414E2,3.213083E2,-2.6862438E1,2.5005176E2,-2.089998E2,4.2126465E1,1.4365195E2,3.62326E2,1.7400967E2,-6.2614746E1,-6.3408985E1,2.3974141E2,7.282064E1,-1.8534814E2,2.0863832E2,-3.654425E1,5.0705267E2,2.3071704E2,-2.1259961E2,3.8034668E1,3.8513965E2,6.709473E1,2.5251758E2,-1.0501648E2,4.8725952E1,-1.3916435E2],"categories":[],"categories_nodes":[],"categories_segments":[],"categories_sizes":[],"default_left":[1,1,0,0,0,1,1,0,0,0,0,0,0,0,0,1,1,0,1,1,1,0,0,0,0,1,1,1,0,0,0,0,0,0,1,1,1,0,0,0,0,0,0,0,0,0,0,0,0,0,0,0,0],"id":9,"left_children":[1,3,5,7,9,11,13,-1,15,17,19,-1,21,-1,23,25,27,29,31,33,35,-1,-1,-1,-1,37,39,41,43,45,-1,-1,-1,-1,47,49,51,-1,-1,-1,-1,-1,-1,-1,-1,-1,-1,-1,-1,-1,-1,-1,-1],"loss_changes":[3.18636E5,3.88836E5,3.41376E5,2.81288E5,6.175081E5,3.6170475E5,1.5354825E5,0E0,4.27652E5,1.2369656E5,3.8790988E5,0E0,6.1361688E4,0E0,8.55695E4,1.2275384E5,3.3714E5,1.29500266E5,6.811503E4,7.2183125E4,2.8333538E5,0E0,0E0,0E0,0E0,2.211134E5,1.0774819E5,4.351E5,3.8781875E5,1.40678E5,0E0,0E0,0E0,0E0,4.82475E4,3.551049E5,7.496561E4,0E0,0E0,0E0,0E0,0E0,0E0,0E0,0E0,0E0,0E0,0E0,0E0,0E0,0E0,0E0,0E0],"parents":[2147483647,0,0,1,1,2,2,3,3,4,4,5,5,6,6,8,8,9,9,10,10,12,12,14,14,15,15,16,16,17,17,18,18,19,19,20,20,25,25,26,26,27,27,28,28,29,29,34,34,35,35,36,36],"right_children":[2,4,6,8,10,12,14,-1,16,18,20,-1,22,-1,24,26,28,30,32,34,36,-1,-1,-1,-1,38,40,42,44,46,-1,-1,-1,-1,48,50,52,-1,-1,-1,-1,-1,-1,-1,-1,-1,-1,-1,-1,-1,-1,-1,-1],"split_conditions":[5.808E3,5.5315E3,5.181E3,4.097E3,5.575E3,2.5E0,1.5E0,1.4812086E2,4.2405E3,5.183E3,5.4205E3,-7.790948E1,5.1685E3,1.2418946E1,6.124E3,4.75E3,5.4685E3,5.5635E3,5E0,1.5E0,7.5E0,9.495026E1,1.8454493E1,1.5970087E2,2.8845558E1,1.25E1,3.5E0,5.4445E3,5.4845E3,4.52E3,7.501553E1,-6.2699944E1,1.263794E1,4.3095585E1,2.75E1,5.5E0,1.95E1,-1.9022696E1,7.1922424E1,2.1846193E1,-5.5604446E1,6.25915E1,-1.0963276E1,1.5211581E2,6.921512E1,-6.3779884E1,1.14104E1,1.155419E2,2.0128418E1,7.575528E1,-3.1504946E1,1.4617786E1,-4.1749306E1],"split_indices":[8,8,9,7,8,3,4,0,7,7,9,0,7,0,8,8,8,8,3,3,0,0,0,0,0,4,0,8,8,7,0,0,0,0,4,3,4,0,0,0,0,0,0,0,0,0,0,0,0,0,0,0,0],"split_type":[0,0,0,0,0,0,0,0,0,0,0,0,0,0,0,0,0,0,0,0,0,0,0,0,0,0,0,0,0,0,0,0,0,0,0,0,0,0,0,0,0,0,0,0,0,0,0,0,0,0,0,0,0],"sum_hessian":[1.455E3,1.439E3,1.6E1,1.388E3,5.1E1,6E0,1E1,3E0,1.385E3,1.6E1,3.5E1,1E0,5E0,1E0,9E0,1.3E1,1.372E3,1.1E1,5E0,1.4E1,2.1E1,3E0,2E0,8E0,1E0,8E0,5E0,1.343E3,2.9E1,1E1,1E0,4E0,1E0,4E0,1E1,1.4E1,7E0,4E0,4E0,2E0,3E0,1.336E3,7E0,8E0,2.1E1,2E0,8E0,9E0,1E0,1.1E1,3E0,3E0,4E0],"tree_param":{"num_deleted":"0","num_feature":"10","num_nodes":"53","size_leaf_vector":"0"}},{"base_weights":[1.4610188E2,1.4509065E2,4.1054364E2,1.4365718E2,2.6476627E2,2.117212E1,5.025935E2,1.7297652E2,1.3748587E2,3.4971603E2,6.48973E1,2.558201E2,1.5708641E2,7.8169975E1,1.4356476E2,4.046422E2,6.836556E1,-2.2074341E2,1.6617412E2,1.4223975E2,3.741183E2,1.632865E2,-7.989795E1,1.1113888E2,-7.1557526E1,2.5356232E2,1.3963799E2,3.518701E1,4.4642572E2,8.271265E1,1.9835693E1,2.1531375E2,-7.6330894E1,1.3635628E2,3.9531625E2,1.5622572E2,4.772693E2,-1.9556462E2,2.6826538E1,8.922825E1,3.0572385E2,-1.3724721E2,1.6609892E2,4.78494E1,2.9310992E2,1.4077238E2,-1.907799E2],"categories":[],"categories_nodes":[],"categories_segments":[],"categories_sizes":[],"default_left":[1,1,1,0,0,0,0,0,0,1,0,0,0,0,0,1,1,0,0,1,1,0,1,0,0,0,1,0,0,0,0,0,0,0,0,0,0,0,0,0,0,0,0,0,0,0,0],"id":10,"left_children":[1,3,5,7,9,-1,-1,11,13,15,17,19,21,23,25,27,29,-1,-1,31,33,35,37,39,41,43,45,-1,-1,-1,-1,-1,-1,-1,-1,-1,-1,-1,-1,-1,-1,-1,-1,-1,-1,-1,-1],"loss_changes":[3.29784E5,2.11058E5,1.6856694E5,2.36228E5,2.4896575E5,0E0,0E0,2.836465E5,4.18584E5,1.4232475E5,2.1025455E5,4.5736675E5,3.201355E5,5.657606E5,4.31082E5,1.23225875E5,4.4812305E2,0E0,0E0,3.5184356E5,3.681725E4,3.77699E5,7.931312E4,3.6922438E5,3.5063975E5,2.7885125E5,4.18546E5,0E0,0E0,0E0,0E0,0E0,0E0,0E0,0E0,0E0,0E0,0E0,0E0,0E0,0E0,0E0,0E0,0E0,0E0,0E0,0E0],"parents":[2147483647,0,0,1,1,2,2,3,3,4,4,7,7,8,8,9,9,10,10,11,11,12,12,13,13,14,14,15,15,16,16,19,19,20,20,21,21,22,22,23,23,24,24,25,25,26,26],"right_children":[2,4,6,8,10,-1,-1,12,14,16,18,20,22,24,26,28,30,-1,-1,32,34,36,38,40,42,44,46,-1,-1,-1,-1,-1,-1,-1,-1,-1,-1,-1,-1,-1,-1,-1,-1,-1,-1,-1,-1],"split_conditions":[5.9145E3,5.813E3,1.5E0,4.8825E3,5.9765E3,6.351636E0,1.5077806E2,4.7885E3,5.0555E3,5.5E0,4.6485E3,4.6195E3,5.79E3,4.9675E3,5.24E3,1.5E0,6E0,-6.622302E1,4.9852238E1,9E0,5E-1,5.7325E3,2.5E0,4.9245E3,5.441E3,5.0205E3,5.764E3,1.0556104E1,1.3392772E2,2.4813795E1,5.9507084E0,6.459413E1,-2.289927E1,4.0906883E1,1.1859488E2,4.6867718E1,1.4318079E2,-5.8669388E1,8.047962E0,2.6768476E1,9.1717155E1,-4.1174164E1,4.9829678E1,1.435482E1,8.793298E1,4.2231716E1,-5.7233974E1],"split_indices":[9,8,3,8,8,0,0,9,9,3,7,9,7,9,9,4,0,0,0,0,3,7,0,9,8,8,9,0,0,0,0,0,0,0,0,0,0,0,0,0,0,0,0,0,0,0,0],"split_type":[0,0,0,0,0,0,0,0,0,0,0,0,0,0,0,0,0,0,0,0,0,0,0,0,0,0,0,0,0,0,0,0,0,0,0,0,0,0,0,0,0,0,0,0,0,0,0],"sum_hessian":[1.455E3,1.451E3,4E0,1.436E3,1.5E1,1E0,3E0,2.45E2,1.191E3,1E1,5E0,3.7E1,2.08E2,1.12E2,1.079E3,8E0,2E0,1E0,4E0,2E1,1.7E1,2.03E2,5E0,9.2E1,2E1,3.5E1,1.044E3,1E0,7E0,1E0,1E0,1.5E1,5E0,2E0,1.5E1,2E2,3E0,2E0,3E0,8.4E1,8E0,1.6E1,4E0,6E0,2.9E1,1.041E3,3E0],"tree_param":{"num_deleted":"0","num_feature":"10","num_nodes":"47","size_leaf_vector":"0"}},{"base_weights":[1.0286942E2,1.00699104E2,1.9630173E2,1.0497045E2,6.789473E1,3.1765805E2,1.1760756E2,1.00207794E2,1.5332472E2,2.4485373E2,5.745117E1,3.3331143E2,7.273535E1,-3.2320898E2,1.5580884E2,1.0663291E2,3.530819E1,8.504617E1,2.2915912E2,9.020654E1,4.1561108E2,2.8483004E1,1.1022328E2,2.6505865E2,6.088741E1,1.113564E2,-8.819824E0,1.2900647E2,-4.89815E1,2.9870764E2,5.1190742E1,2.5562094E1,2.5027449E2,1.410752E2,-7.6871743E0,5.014102E1,-2.0570062E2,5.422519E1,2.083086E2,7.341333E1,3.4864575E2,-9.5323E1,1.8608385E2,1.4241245E2,9.354711E1,-1.8152853E2,2.500742E1,6.005466E1,3.2063434E2,-1.1336404E2,7.257527E1,9.0774414E1,3.5288965E2,6.613126E0,2.4221318E2,-4.2308716E1,1.07535805E2,2.595595E2,-8.8417725E1,1.6210384E2,3.899463E1,2.898462E1,-4.051538E1,8.820347E0,1.07769455E2,1.7880859E0,-2.3186023E2,-3.147935E1,1.9727403E2,3.2423672E2,5.9956787E1,1.39851885E1,1.2584888E2,3.8283536E2,8.884888E1,6.4933267E0,-1.4785449E2,5.479785E1,2.2763867E2],"categories":[],"categories_nodes":[],"categories_segments":[],"categories_sizes":[],"default_left":[1,1,0,1,1,1,0,1,1,1,1,0,0,0,1,1,1,0,0,1,0,1,1,0,1,1,1,1,0,0,1,0,1,1,1,0,1,0,0,1,1,1,1,0,0,0,0,0,0,0,0,0,0,0,0,0,0,0,0,0,0,0,0,0,0,0,0,0,0,0,0,0,0,0,0,0,0,0,0],"id":11,"left_children":[1,3,5,7,9,11,13,15,17,19,21,-1,-1,-1,23,25,27,29,31,33,-1,35,37,39,41,43,45,47,49,51,53,55,57,59,61,63,65,67,69,71,73,75,77,-1,-1,-1,-1,-1,-1,-1,-1,-1,-1,-1,-1,-1,-1,-1,-1,-1,-1,-1,-1,-1,-1,-1,-1,-1,-1,-1,-1,-1,-1,-1,-1,-1,-1,-1,-1],"loss_changes":[2.75478E5,1.92542E5,2.6824225E5,2.74577E5,2.945625E5,2.1762875E4,4.039937E5,4.75354E5,5.552535E5,2.0017344E5,2.3992556E5,0E0,0E0,0E0,1.9126416E5,5.70861E5,8.355878E5,4.1872503E5,2.1715225E5,3.09628E4,0E0,5.377971E5,2.962895E5,1.185765E5,2.5242189E5,5.41977E5,2.4991445E5,6.41399E5,4.464908E5,5.80965E4,4.4971044E5,3.7931434E4,1.70753E5,2.2652812E3,4.7859307E3,2.2764905E5,4.9265E4,4.598277E5,3.2452275E5,1.0704566E4,1.9279625E4,3.3051453E4,2.5714875E4,0E0,0E0,0E0,0E0,0E0,0E0,0E0,0E0,0E0,0E0,0E0,0E0,0E0,0E0,0E0,0E0,0E0,0E0,0E0,0E0,0E0,0E0,0E0,0E0,0E0,0E0,0E0,0E0,0E0,0E0,0E0,0E0,0E0,0E0,0E0,0E0],"parents":[2147483647,0,0,1,1,2,2,3,3,4,4,5,5,6,6,7,7,8,8,9,9,10,10,14,14,15,15,16,16,17,17,18,18,19,19,21,21,22,22,23,23,24,24,25,25,26,26,27,27,28,28,29,29,30,30,31,31,32,32,33,33,34,34,35,35,36,36,37,37,38,38,39,39,40,40,41,41,42,42],"right_children":[2,4,6,8,10,12,14,16,18,20,22,-1,-1,-1,24,26,28,30,32,34,-1,36,38,40,42,44,46,48,50,52,54,56,58,60,62,64,66,68,70,72,74,76,78,-1,-1,-1,-1,-1,-1,-1,-1,-1,-1,-1,-1,-1,-1,-1,-1,-1,-1,-1,-1,-1,-1,-1,-1,-1,-1,-1,-1,-1,-1,-1,-1,-1,-1,-1,-1],"split_conditions":[5.5535E3,3.235E2,5.617E3,2.955E2,2.5E0,2.4E1,5.6305E3,2.685E2,1.55E1,3.5E0,3.515E2,9.999343E1,2.1820606E1,-9.69627E1,4.5E0,5.314E3,4.7315E3,4.892E3,5.225E3,4.9995E3,1.2468333E2,3.495E2,4.8105E3,5.7265E3,2.4E1,1.15E1,3.5E0,4.3845E3,5.266E3,4.4935E3,5.198E3,5.399E3,5.504E3,2.015E3,1.5E0,5.2265E3,1.5E0,1.161E4,5.0205E3,1.1E1,1.45E1,1.315E2,7.5E0,4.2723736E1,2.8064135E1,-5.445856E1,7.5022264E0,1.80164E1,9.619031E1,-3.4009212E1,2.1772583E1,2.7232325E1,1.058669E2,1.9839379E0,7.2663956E1,-1.26926155E1,3.2260742E1,7.786786E1,-2.6525318E1,4.8631153E1,1.1698389E1,8.695386E0,-1.2154614E1,2.646104E0,3.2330837E1,5.364258E-1,-6.9558075E1,-9.443805E0,5.9182213E1,9.727102E1,1.7987038E1,4.1955566E0,3.7754665E1,1.1485061E2,2.6654665E1,1.947998E0,-4.435635E1,1.6439356E1,6.82916E1],"split_indices":[9,5,9,5,4,4,9,5,4,3,5,0,0,0,0,9,7,9,9,7,0,5,8,9,2,4,4,7,7,8,8,8,9,1,3,7,3,7,8,2,2,5,0,0,0,0,0,0,0,0,0,0,0,0,0,0,0,0,0,0,0,0,0,0,0,0,0,0,0,0,0,0,0,0,0,0,0,0,0],"split_type":[0,0,0,0,0,0,0,0,0,0,0,0,0,0,0,0,0,0,0,0,0,0,0,0,0,0,0,0,0,0,0,0,0,0,0,0,0,0,0,0,0,0,0,0,0,0,0,0,0,0,0,0,0,0,0,0,0,0,0,0,0,0,0,0,0,0,0,0,0,0,0,0,0,0,0,0,0,0,0],"sum_hessian":[1.455E3,1.424E3,3.1E1,1.258E3,1.66E2,1.1E1,2E1,1.148E3,1.1E2,8E0,1.58E2,1E1,1E0,1E0,1.9E1,1.044E3,1.04E2,5.9E1,5.1E1,5E0,3E0,1.03E2,5.5E1,8E0,1.1E1,1.003E3,4.1E1,4.9E1,5.5E1,7E0,5.2E1,5E0,4.6E1,3E0,2E0,9.5E1,8E0,3.6E1,1.9E1,3E0,5E0,5E0,6E0,3.63E2,6.4E2,6E0,3.5E1,3.7E1,1.2E1,3.6E1,1.9E1,2E0,5E0,4.3E1,9E0,3E0,2E0,4.5E1,1E0,2E0,1E0,1E0,1E0,5.6E1,3.9E1,1E0,7E0,2.3E1,1.3E1,1E1,9E0,2E0,1E0,4E0,1E0,2E0,3E0,2E0,4E0],"tree_param":{"num_deleted":"0","num_feature":"10","num_nodes":"79","size_leaf_vector":"0"}},{"base_weights":[7.267325E1,6.776287E1,1.042667E2,7.058091E1,-1.4293422E2,6.148382E1,1.6847597E2,7.937823E1,4.8252487E1,1.4631897E1,-2.546937E2,7.567337E1,-2.7433466E2,2.1613715E2,6.667375E1,6.260507E1,1.0864157E2,-1.1938197E1,6.666338E1,-1.20323364E2,1.1966972E2,-3.2530392E2,-6.745239E1,6.117064E1,2.2038472E2,1.6436533E2,4.803365E2,-1.75198E2,1.0583955E2,9.635616E1,4.2649273E1,1.0294586E2,3.5186948E2,-3.5071102E1,1.627524E2,1.9418066E2,6.105517E1,-3.3767414E1,-1.899956E2,-1.5120093E2,2.2518762E2,-1.0547046E2,-1.9622885E1,-2.3762776E2,6.927962E1,2.690996E2,1.7016764E1,2.4325557E2,3.251579E1,-1.9053125E2,1.4313826E2,5.4998135E1,1.5353842E2,-1.7886383E2,5.2129177E1,2.1697887E2,9.289902E1,2.3935059E1,4.0253604E2,-1.39570875E1,-2.3818478E2,2.0360275E2,-1.0245044E2,3.6893277E2,-1.29348955E1,-1.9894519E2,6.4834885E1,2.6081006E2,5.9160156E1,1.09871216E2,1.2352894E1,3.2283154E2,7.1935875E1,2.8283691E0,2.2696777E1,5.0696957E2,2.0347104E2,1.2043701E2,-6.878732E1,1.6846638E2,-6.4986E1],"categories":[],"categories_nodes":[],"categories_segments":[],"categories_sizes":[],"default_left":[1,1,1,1,1,1,1,1,1,0,0,1,0,1,1,1,1,1,1,1,1,0,1,0,1,0,0,0,1,1,1,0,1,1,1,1,1,0,0,0,1,0,0,0,1,1,1,1,1,0,1,0,0,0,0,0,0,0,0,0,0,0,0,0,0,0,0,0,0,0,0,0,0,0,0,0,0,0,0,0,0],"id":12,"left_children":[1,3,5,7,9,11,13,15,17,19,21,23,-1,25,27,29,31,33,35,37,39,-1,41,43,45,47,-1,-1,49,51,53,55,57,59,61,63,65,-1,-1,-1,67,-1,-1,-1,69,71,73,75,77,-1,79,-1,-1,-1,-1,-1,-1,-1,-1,-1,-1,-1,-1,-1,-1,-1,-1,-1,-1,-1,-1,-1,-1,-1,-1,-1,-1,-1,-1,-1,-1],"loss_changes":[2.188125E5,7.59997E5,5.2257075E5,2.411185E5,3.030883E5,5.830431E5,3.5919425E5,4.315175E5,3.941943E5,1.2780232E5,1.10269E5,2.2577194E5,0E0,6.323095E5,2.6484344E5,3.798025E5,4.12632E5,3.4516038E5,1.8266375E5,1.7706535E4,1.7695708E5,0E0,5.2039062E3,2.7087238E5,9.449125E4,4.6016438E5,0E0,0E0,2.8152003E5,4.9055925E5,7.652965E5,3.441665E5,1.066725E5,3.183165E5,1.291955E5,4.0290484E5,2.7037312E5,0E0,0E0,0E0,8.227656E3,0E0,0E0,0E0,2.3664972E5,6.152875E4,1.7757599E2,1.9061488E5,1.6860503E5,0E0,1.2164731E5,0E0,0E0,0E0,0E0,0E0,0E0,0E0,0E0,0E0,0E0,0E0,0E0,0E0,0E0,0E0,0E0,0E0,0E0,0E0,0E0,0E0,0E0,0E0,0E0,0E0,0E0,0E0,0E0,0E0,0E0],"parents":[2147483647,0,0,1,1,2,2,3,3,4,4,5,5,6,6,7,7,8,8,9,9,10,10,11,11,13,13,14,14,15,15,16,16,17,17,18,18,19,19,20,20,22,22,23,23,24,24,25,25,28,28,29,29,30,30,31,31,32,32,33,33,34,34,35,35,36,36,40,40,44,44,45,45,46,46,47,47,48,48,50,50],"right_children":[2,4,6,8,10,12,14,16,18,20,22,24,-1,26,28,30,32,34,36,38,40,-1,42,44,46,48,-1,-1,50,52,54,56,58,60,62,64,66,-1,-1,-1,68,-1,-1,-1,70,72,74,76,78,-1,80,-1,-1,-1,-1,-1,-1,-1,-1,-1,-1,-1,-1,-1,-1,-1,-1,-1,-1,-1,-1,-1,-1,-1,-1,-1,-1,-1,-1,-1,-1],"split_conditions":[4.996E3,4.9675E3,2.225E2,2.625E2,4.5E0,2.145E2,3.175E2,5.037E3,2.865E2,5.2245E3,5.17E3,2.85E1,-8.23004E1,3.015E2,3.215E2,1.15E1,2.595E2,2.75E1,2.895E2,4.5E0,1.5E0,-9.759118E1,9E0,4.4525E3,5E0,5.0975E3,1.4410095E2,-5.2559402E1,5E-1,6.5E0,1.25E1,4.641E3,1.65E1,5.4215E3,5.3665E3,4.7425E3,2.905E2,-1.0130224E1,-5.6998684E1,-4.536028E1,1.35E1,-3.1641138E1,-5.8868656E0,-7.128833E1,1.105E2,2.55E1,2.95E1,8.5E0,8.5E0,-5.7159378E1,5.5E0,1.6499441E1,4.6061527E1,-5.3659153E1,1.5638754E1,6.5093666E1,2.7869707E1,7.1805177E0,1.2076082E2,-4.1871266E0,-7.145544E1,6.108083E1,-3.0735132E1,1.1067983E2,-3.8804688E0,-5.968356E1,1.9450466E1,7.824302E1,1.7748047E1,3.2961365E1,3.7058682E0,9.6849464E1,2.1580763E1,8.485108E-1,6.8090334E0,1.5209088E2,6.1041313E1,3.6131104E1,-2.0636198E1,5.0539917E1,-1.94958E1],"split_indices":[9,9,5,5,0,5,5,7,5,7,8,2,0,5,5,4,5,4,5,3,0,0,0,7,3,7,0,0,3,4,4,8,4,7,8,7,5,0,0,0,2,0,0,0,5,4,2,0,0,0,3,0,0,0,0,0,0,0,0,0,0,0,0,0,0,0,0,0,0,0,0,0,0,0,0,0,0,0,0,0,0],"split_type":[0,0,0,0,0,0,0,0,0,0,0,0,0,0,0,0,0,0,0,0,0,0,0,0,0,0,0,0,0,0,0,0,0,0,0,0,0,0,0,0,0,0,0,0,0,0,0,0,0,0,0,0,0,0,0,0,0,0,0,0,0,0,0,0,0,0,0,0,0,0,0,0,0,0,0,0,0,0,0,0,0],"sum_hessian":[1.455E3,1.262E3,1.93E2,1.246E3,1.6E1,1.17E2,7.6E1,8.92E2,3.54E2,7E0,9E0,1.13E2,4E0,5.1E1,2.5E1,5.69E2,3.23E2,8.3E1,2.71E2,3E0,4E0,6E0,3E0,1.04E2,9E0,4.4E1,7E0,3E0,2.2E1,2.1E2,3.59E2,3.17E2,6E0,7.4E1,9E0,1E1,2.61E2,2E0,1E0,1E0,3E0,1E0,2E0,2E0,1.02E2,7E0,2E0,2.7E1,1.7E1,2E0,2E1,1.23E2,8.7E1,1.4E1,3.45E2,2.4E1,2.93E2,1E0,5E0,6.8E1,6E0,8E0,1E0,5E0,5E0,3E0,2.58E2,2E0,1E0,5.9E1,4.3E1,5E0,2E0,1E0,1E0,2E0,2.5E1,9E0,8E0,1.8E1,2E0],"tree_param":{"num_deleted":"0","num_feature":"10","num_nodes":"81","size_leaf_vector":"0"}},{"base_weights":[5.1158546E1,5.048107E1,2.376665E2,1.3151578E2,4.9142414E1,1.5169434E1,2.894984E2,-7.1154785E1,1.9176619E2,-2.2645117E2,4.9686977E1,6.532031E1,-1.5572241E2,2.6626807E2,-1.6155599E0,5.1451317E1,-2.6455551E1,-6.24292E0,1.0422339E2,-2.3933432E1,3.2120773E2,-1.0272656E2,3.9151955E1,5.0096024E1,2.5475055E2,-2.0757373E2,2.1480848E1,7.009033E1,-1.0599048E2,3.614762E2,9.333317E1,6.1860962E1,-2.5842041E1,6.7656334E1,4.3787815E1,3.9738477E2,1.1720264E2,3.8188736E2,-2.2627169E1],"categories":[],"categories_nodes":[],"categories_segments":[],"categories_sizes":[],"default_left":[1,0,1,0,0,0,0,1,1,0,1,1,0,0,0,1,0,0,0,1,1,0,0,1,0,0,0,0,0,0,0,0,0,0,0,0,0,0,0],"id":13,"left_children":[1,3,5,7,9,-1,-1,11,13,-1,15,17,-1,19,21,23,25,-1,-1,27,29,-1,31,33,35,-1,37,-1,-1,-1,-1,-1,-1,-1,-1,-1,-1,-1,-1],"loss_changes":[1.7197525E5,1.5104675E5,5.327072E4,2.9449775E5,2.2586425E5,0E0,0E0,7.942008E4,2.5976162E5,0E0,1.932E5,9.002747E3,0E0,2.14954E5,2.875421E4,3.718775E5,2.9096994E5,0E0,0E0,3.0574846E4,6.72E4,0E0,8.978359E3,1.50792E5,1.2999681E5,0E0,4.3785506E5,0E0,0E0,0E0,0E0,0E0,0E0,0E0,0E0,0E0,0E0,0E0,0E0],"parents":[2147483647,0,0,1,1,2,2,3,3,4,4,7,7,8,8,10,10,11,11,13,13,14,14,15,15,16,16,19,19,20,20,22,22,23,23,24,24,26,26],"right_children":[2,4,6,8,10,-1,-1,12,14,-1,16,18,-1,20,22,24,26,-1,-1,28,30,-1,32,34,36,-1,38,-1,-1,-1,-1,-1,-1,-1,-1,-1,-1,-1,-1],"split_conditions":[5.9145E3,4.3385E3,1.5E0,4.5955E3,4.354E3,4.5508304E0,8.6849525E1,5.5E0,4.794E3,-6.7935356E1,5.771E3,6.5E0,-4.6716724E1,4.0335E3,4.7495E3,5.7325E3,5.816E3,-1.872876E0,3.1267017E1,4E0,1.05E1,-3.081797E1,5.1075E3,8.5E0,5.754E3,-6.227212E1,5.8385E3,2.10271E1,-3.1797144E1,1.0844286E2,2.7999952E1,1.8558289E1,-7.7526126E0,2.0296902E1,1.3136345E1,1.1921543E2,3.5160793E1,1.14566216E2,-6.788151E0],"split_indices":[9,8,3,7,8,0,0,4,9,0,7,0,0,8,7,7,7,0,0,0,0,0,7,4,7,0,7,0,0,0,0,0,0,0,0,0,0,0,0],"split_type":[0,0,0,0,0,0,0,0,0,0,0,0,0,0,0,0,0,0,0,0,0,0,0,0,0,0,0,0,0,0,0,0,0,0,0,0,0,0,0],"sum_hessian":[1.455E3,1.451E3,4E0,2.2E1,1.429E3,1E0,3E0,5E0,1.7E1,2E0,1.427E3,2E0,3E0,1.2E1,5E0,1.395E3,3.2E1,1E0,1E0,2E0,1E1,1E0,4E0,1.387E3,8E0,6E0,2.6E1,1E0,1E0,8E0,2E0,3E0,1E0,3.64E2,1.023E3,3E0,5E0,2E0,2.4E1],"tree_param":{"num_deleted":"0","num_feature":"10","num_nodes":"39","size_leaf_vector":"0"}},{"base_weights":[3.60481E1,2.0475595E2,3.5442326E1,2.791057E2,-4.6321533E1,1.1298198E1,3.9492867E1,1.9605787E1,-1.764164E2,2.7086194E2,3.7017406E1,3.0119713E1,-1.3556741E2,-2.7989957E2,1.2384977E2,3.457077E2,1.6031982E1,1.719868E1,4.653641E1,9.599045E1,1.1676677E0,-3.086867E2,-2.4326986E1,3.925106E2,-3.7759033E1,-6.368034E1,1.2758447E2,4.3145252E1,-6.3464138E1,2.5562334E2,4.393616E1,1.750792E2,1.0864477E1,-1.5320233E2,1.7743225E1,-3.543799E1,-3.681394E2,1.3351653E2,-2.550105E2,1.1179248E2,4.1362628E2,-9.2302246E1,-3.2182617E0,2.4533571E1,1.65369E2,-1.0629336E2,5.3097637E1,3.2006348E1,3.075268E2,7.870661E1,3.1334682E1],"categories":[],"categories_nodes":[],"categories_segments":[],"categories_sizes":[],"default_left":[0,1,1,0,0,1,1,1,1,1,0,0,1,0,0,1,1,0,0,0,0,0,1,0,0,1,0,0,1,0,1,0,0,0,0,0,0,0,0,0,0,0,0,0,0,0,0,0,0,0,0],"id":14,"left_children":[1,3,5,-1,-1,7,9,11,13,15,17,19,21,-1,-1,23,25,27,29,31,33,35,37,39,-1,41,-1,43,45,47,49,-1,-1,-1,-1,-1,-1,-1,-1,-1,-1,-1,-1,-1,-1,-1,-1,-1,-1,-1,-1],"loss_changes":[1.4154525E5,1.0626636E5,1.4155462E5,0E0,0E0,3.309445E5,7.0189525E5,3.3364216E5,3.1431794E5,2.42406E5,2.3143325E5,3.622354E5,2.4284283E5,0E0,0E0,1.9429425E5,4.3693055E4,8.420005E5,4.405655E5,3.885833E5,3.4303456E5,6.818075E4,3.6175516E5,7.10775E3,0E0,4.8945693E3,0E0,6.874789E5,4.9488434E5,1.06222125E5,3.5770062E5,0E0,0E0,0E0,0E0,0E0,0E0,0E0,0E0,0E0,0E0,0E0,0E0,0E0,0E0,0E0,0E0,0E0,0E0,0E0,0E0],"parents":[2147483647,0,0,1,1,2,2,5,5,6,6,7,7,8,8,9,9,10,10,11,11,12,12,15,15,16,16,17,17,18,18,19,19,20,20,21,21,22,22,23,23,25,25,27,27,28,28,29,29,30,30],"right_children":[2,4,6,-1,-1,8,10,12,14,16,18,20,22,-1,-1,24,26,28,30,32,34,36,38,40,-1,42,-1,44,46,48,50,-1,-1,-1,-1,-1,-1,-1,-1,-1,-1,-1,-1,-1,-1,-1,-1,-1,-1,-1,-1],"split_conditions":[4.097E3,5E0,5.35E1,8.373172E1,-1.3896461E1,5.15E1,5.65E1,2.85E1,4.6845E3,5.521E3,4.97E3,5.2035E3,2.95E1,-8.396987E1,3.7154934E1,2.0165E3,4E0,4.882E3,4.978E3,5.0625E3,5.3205E3,4.9525E3,4.5E0,4.6615E3,-1.132771E1,2.016E3,3.8275345E1,4.832E3,4.626E3,4.564E3,1.375E2,5.252376E1,3.2593434E0,-4.59607E1,5.3229675E0,-1.0631397E1,-1.10441826E2,4.005496E1,-7.650315E1,3.3537746E1,1.2408789E2,-2.7690676E1,-9.6547854E-1,7.3600717E0,4.9610703E1,-3.1888008E1,1.5929292E1,9.601905E0,9.225804E1,2.3611984E1,9.400405E0],"split_indices":[7,3,5,0,0,5,5,4,8,7,7,8,4,0,0,1,3,7,7,7,8,7,3,8,0,1,0,7,9,8,5,0,0,0,0,0,0,0,0,0,0,0,0,0,0,0,0,0,0,0,0],"split_type":[0,0,0,0,0,0,0,0,0,0,0,0,0,0,0,0,0,0,0,0,0,0,0,0,0,0,0,0,0,0,0,0,0,0,0,0,0,0,0,0,0,0,0,0,0,0,0,0,0,0,0],"sum_hessian":[1.455E3,4E0,1.451E3,3E0,1E0,2.09E2,1.242E3,2.01E2,8E0,1.2E1,1.23E3,1.89E2,1.2E1,6E0,2E0,9E0,3E0,4E2,8.3E2,5.7E1,1.32E2,4E0,8E0,8E0,1E0,2E0,1E0,3.03E2,9.7E1,9E0,8.21E2,2.9E1,2.8E1,1.2E1,1.2E2,1E0,3E0,5E0,3E0,1E0,7E0,1E0,1E0,2.64E2,3.9E1,7.1E1,2.6E1,2E0,7E0,2.17E2,6.04E2],"tree_param":{"num_deleted":"0","num_feature":"10","num_nodes":"51","size_leaf_vector":"0"}},{"base_weights":[2.5379673E1,8.444927E0,3.0791748E1,2.6194609E1,-8.449981E1,1.3563068E2,2.5997185E1,8.687074E0,1.1719871E2,6.568555E1,-1.0345663E2,2.8670807E1,3.2898862E2,1.793486E1,4.916971E1,1.6240265E1,-1.7496884E2,1.3247552E2,-1.1818196E1,-6.216081E1,1.2925626E2,-1.4831987E2,-5.0054574E0,1.8181006E2,-2.9951029E1,-1.3714111E1,4.034045E2,6.461824E1,9.743693E0,1.3088087E2,3.062833E1,-2.7698863E0,6.593498E1,-2.2062024E2,5.091146E0,7.862463E1,1.7183144E2,4.3614357E1,-1.4449048E2,-9.2656006E1,-5.852051E-1,4.7961426E0,1.5917224E2,-1.4346499E1,-2.893301E2,-2.1759334E2,1.3073277E2,-4.6766438E1,2.5379855E2,-6.9494E1,1.8513733E2,-3.561784E1,2.5998535E1,1.479375E2,4.336542E2,-7.056899E1,8.673274E1,-1.8206363E2,1.716298E1,2.8492466E1,2.4983714E2,-1.1423239E2,4.162421E1,9.681953E0,-2.1043863E2,1.9532892E1,6.3741437E2,-5.704964E1,-2.656355E2,-1.0488281E0,8.685547E0,1.6291728E2,-4.250163E1,-2.3794678E1,2.009111E2,-7.97067E1,1.523973E2,2.5967188E2,-8.195444E1,-7.022571E1,-3.3126492E2,-4.6783334E2,-2.3930664E1,-5.4971863E1,4.6945886E2,-6.58811E1,-4.2685547E0,3.971271E2,1.170417E2,2.5962627E1,-1.9965424E2,2.189336E2,4.1874268E1,4.5183548E2,1.1683008E2,8.9765E1,-1.6618434E2,-4.3221984E0,1.2171714E2,-6.233724E1,-3.2877567E2,8.638272E1,1.094745E1,1.6673709E2,-1.6789574E1,-1.5834001E2,2.9625116E2,-2.732864E2,8.528662E0,1.1410425E2,8.618469E0],"categories":[],"categories_nodes":[],"categories_segments":[],"categories_sizes":[],"default_left":[1,1,1,1,0,1,1,1,1,1,1,1,0,1,0,1,1,1,1,1,1,1,1,0,1,1,1,1,1,0,1,1,1,1,1,1,0,1,0,0,0,0,0,0,0,1,0,1,1,1,1,0,0,0,0,1,1,0,1,1,0,1,0,0,0,0,0,0,0,0,0,0,0,0,0,0,0,0,0,0,0,0,0,0,0,0,0,0,0,0,0,0,0,0,0,0,0,0,0,0,0,0,0,0,0,0,0,0,0,0,0],"id":15,"left_children":[1,3,5,7,9,11,13,15,17,19,21,23,25,27,29,31,33,35,37,39,41,43,45,47,49,51,53,55,57,59,61,63,65,67,69,71,73,75,-1,-1,-1,-1,-1,77,79,81,83,85,87,89,91,-1,-1,-1,93,95,97,99,101,103,105,107,109,-1,-1,-1,-1,-1,-1,-1,-1,-1,-1,-1,-1,-1,-1,-1,-1,-1,-1,-1,-1,-1,-1,-1,-1,-1,-1,-1,-1,-1,-1,-1,-1,-1,-1,-1,-1,-1,-1,-1,-1,-1,-1,-1,-1,-1,-1,-1,-1],"loss_changes":[1.331855E5,5.8622125E5,5.509046E5,4.7377262E5,1.6907672E5,9.8328156E5,1.9640475E5,3.5102578E5,9.6172E4,6.492565E4,2.2451631E5,2.9271912E5,4.3907525E5,2.9954762E5,4.080815E5,2.2880102E5,8.332309E4,7.762194E4,5.0428035E4,5.5790586E3,1.7853328E4,6.5705575E5,5.190037E5,1.5996316E5,2.1699152E5,4.4054316E3,4.40355E4,3.5590366E5,9.551608E5,6.018688E5,3.5996506E5,4.5714847E5,1.7642448E6,4.375097E4,7.5318214E1,2.1112531E5,1.4131044E5,7.922322E4,0E0,0E0,0E0,0E0,0E0,3.7327178E5,1.3293438E5,3.2803944E5,7.177401E5,2.1557817E3,9.072769E4,2.6610138E5,1.0199344E4,0E0,0E0,0E0,1.6335E4,2.755342E5,3.2226175E5,4.1863762E5,2.7655744E5,1.7807942E5,4.826465E5,3.14741E5,4.9660625E5,0E0,0E0,0E0,0E0,0E0,0E0,0E0,0E0,0E0,0E0,0E0,0E0,0E0,0E0,0E0,0E0,0E0,0E0,0E0,0E0,0E0,0E0,0E0,0E0,0E0,0E0,0E0,0E0,0E0,0E0,0E0,0E0,0E0,0E0,0E0,0E0,0E0,0E0,0E0,0E0,0E0,0E0,0E0,0E0,0E0,0E0,0E0,0E0],"parents":[2147483647,0,0,1,1,2,2,3,3,4,4,5,5,6,6,7,7,8,8,9,9,10,10,11,11,12,12,13,13,14,14,15,15,16,16,17,17,18,18,19,19,20,20,21,21,22,22,23,23,24,24,25,25,26,26,27,27,28,28,29,29,30,30,31,31,32,32,33,33,34,34,35,35,36,36,37,37,43,43,44,44,45,45,46,46,47,47,48,48,49,49,50,50,54,54,55,55,56,56,57,57,58,58,59,59,60,60,61,61,62,62],"right_children":[2,4,6,8,10,12,14,16,18,20,22,24,26,28,30,32,34,36,38,40,42,44,46,48,50,52,54,56,58,60,62,64,66,68,70,72,74,76,-1,-1,-1,-1,-1,78,80,82,84,86,88,90,92,-1,-1,-1,94,96,98,100,102,104,106,108,110,-1,-1,-1,-1,-1,-1,-1,-1,-1,-1,-1,-1,-1,-1,-1,-1,-1,-1,-1,-1,-1,-1,-1,-1,-1,-1,-1,-1,-1,-1,-1,-1,-1,-1,-1,-1,-1,-1,-1,-1,-1,-1,-1,-1,-1,-1,-1,-1],"split_conditions":[8.95E1,2.55E1,1.015E2,2.15E1,4.5635E3,4.858E3,2.35E1,7.85E1,1.25E1,2.65E1,4.5E0,1.5E0,4.7755E3,1.375E2,4.82E3,4.962E3,2.0165E3,5.35E1,1.5E0,1.5E0,5E-1,5.75E1,1.5E0,4.9975E3,4.5335E3,2.0165E3,2.5E0,1.055E2,1.435E2,4.6635E3,1.185E2,4.881E3,1.95E1,1.15E1,5E-1,2.45E1,4.758E3,5E-1,-4.3347145E1,-2.7796803E1,-1.7556153E-1,1.4388428E0,4.7751675E1,4.764E3,5.041E3,2.0155E3,5.407E3,2.016E3,7.5E0,4.9675E3,1.35E1,-1.0685352E1,7.799561E0,4.4381252E1,5.768E3,4.8725E3,7.5E0,5.357E3,1.645E2,1.48E2,4.868E3,2.5E0,5.247E3,2.904586E0,-6.313159E1,5.859868E0,1.9122432E2,-1.7114893E1,-7.969065E1,-3.1464845E-1,2.6056643E0,4.8875187E1,-1.2750489E1,-7.1384034E0,6.0273335E1,-2.3912012E1,4.571919E1,7.7901566E1,-2.4586332E1,-2.1067713E1,-9.937948E1,-1.4035E2,-7.1791997E0,-1.649156E1,1.4083766E2,-1.9764332E1,-1.2805665E0,1.1913814E2,3.511251E1,7.7887883E0,-5.9896275E1,6.5680084E1,1.2562281E1,1.3555064E2,3.5049026E1,2.69295E1,-4.9855305E1,-1.2966596E0,3.6515144E1,-1.8701172E1,-9.8632706E1,2.5914818E1,3.284235E0,5.002113E1,-5.0368724E0,-4.7502007E1,8.887535E1,-8.198592E1,2.5585985E0,3.4231277E1,2.5855408E0],"split_indices":[5,4,5,4,7,8,4,5,2,4,3,3,7,5,7,8,1,5,3,0,3,5,0,7,9,1,4,5,5,7,5,8,4,2,3,5,9,3,0,0,0,0,0,7,9,1,7,1,4,7,2,0,0,0,8,7,4,7,5,5,9,3,8,0,0,0,0,0,0,0,0,0,0,0,0,0,0,0,0,0,0,0,0,0,0,0,0,0,0,0,0,0,0,0,0,0,0,0,0,0,0,0,0,0,0,0,0,0,0,0,0],"split_type":[0,0,0,0,0,0,0,0,0,0,0,0,0,0,0,0,0,0,0,0,0,0,0,0,0,0,0,0,0,0,0,0,0,0,0,0,0,0,0,0,0,0,0,0,0,0,0,0,0,0,0,0,0,0,0,0,0,0,0,0,0,0,0,0,0,0,0,0,0,0,0,0,0,0,0,0,0,0,0,0,0,0,0,0,0,0,0,0,0,0,0,0,0,0,0,0,0,0,0,0,0,0,0,0,0,0,0,0,0,0,0],"sum_hessian":[1.455E3,3.53E2,1.102E3,2.97E2,5.6E1,4.7E1,1.055E3,2.5E2,4.7E1,6E0,5E1,3.1E1,1.6E1,7.84E2,2.71E2,2.41E2,9E0,4.2E1,5E0,2E0,4E0,3.4E1,1.6E1,8E0,2.3E1,3E0,1.3E1,1.16E2,6.68E2,4.9E1,2.22E2,1.75E2,6.6E1,7E0,2E0,1.9E1,2.3E1,4E0,1E0,1E0,1E0,1E0,3E0,1.8E1,1.6E1,6E0,1E1,2E0,6E0,2E1,3E0,2E0,1E0,2E0,1.1E1,1.6E1,1E2,2.4E1,6.44E2,2.7E1,2.2E1,1.5E1,2.07E2,1.66E2,9E0,6.2E1,4E0,2E0,5E0,1E0,1E0,1.1E1,8E0,3E0,2E1,2E0,2E0,3E0,1.5E1,3E0,1.3E1,2E0,4E0,7E0,3E0,1E0,1E0,2E0,4E0,1.2E1,8E0,2E0,1E0,1E1,1E0,6E0,1E1,2.8E1,7.2E1,1.4E1,1E1,5.2E1,5.92E2,6E0,2.1E1,2E0,2E1,6E0,9E0,6.4E1,1.43E2],"tree_param":{"num_deleted":"0","num_feature":"10","num_nodes":"111","size_leaf_vector":"0"}},{"base_weights":[1.8026974E1,1.7031115E1,1.0132172E2,1.7791267E1,-1.05810165E2,1.6465953E2,-1.2683663E1,-6.278253E0,2.1433832E1,8.2607424E-1,-1.9128438E2,2.805546E2,5.835456E1,-1.8882007E2,4.8142414E1,4.0863018E1,-5.2372013E1,6.16629E1,1.4303142E1,1.5104346E2,-1.4966667E2,1.21606445E2,8.732519E0,6.036914E1,-6.4956055E0,-9.019152E0,1.0556482E2,2.3390678E1,-1.503381E2,7.449598E1,-2.3478918E2,-3.745162E1,1.915374E1,-1.5125732E0,2.4856445E1,2.0626303E1,7.998893E1,-9.091515E1,8.961681E1,2.531474E2,9.860742E-1,-1.4984184E2,6.054143E1,-2.7541504E0,-3.288474E2,4.3018944E1,1.3519676E2,-3.0865903E2,-8.786458E0,4.407683E1,-8.459844E1,1.6731329E1,1.02959564E2,-8.188232E0,3.4420574E0,9.9305664E1,2.0677734E1],"categories":[],"categories_nodes":[],"categories_segments":[],"categories_sizes":[],"default_left":[1,1,0,1,1,1,0,1,1,0,0,0,1,0,1,1,1,1,1,0,0,0,1,0,0,1,1,1,0,1,1,1,1,1,0,0,1,0,0,0,0,0,0,0,0,0,0,0,0,0,0,0,0,0,0,0,0],"id":16,"left_children":[1,3,5,7,9,11,13,15,17,19,-1,-1,21,-1,23,25,27,29,31,-1,-1,-1,33,35,-1,37,39,41,43,45,47,49,51,53,-1,-1,55,-1,-1,-1,-1,-1,-1,-1,-1,-1,-1,-1,-1,-1,-1,-1,-1,-1,-1,-1,-1],"loss_changes":[1.1904941E5,1.3634725E5,1.2484295E5,1.2568478E5,8.218984E4,1.1915081E5,8.408606E4,4.1282166E5,3.559732E5,1.3563931E5,0E0,0E0,2.090888E4,0E0,4.4004004E3,3.0433394E5,7.160454E5,7.289121E5,2.6631938E5,0E0,0E0,0E0,8.635528E2,2.2488535E3,0E0,4.443537E5,6.3254425E5,3.6303612E5,1.105589E6,3.3810644E5,1.3084625E5,3.535153E5,1.9479303E5,1.6048607E2,0E0,0E0,1.3836797E3,0E0,0E0,0E0,0E0,0E0,0E0,0E0,0E0,0E0,0E0,0E0,0E0,0E0,0E0,0E0,0E0,0E0,0E0,0E0,0E0],"parents":[2147483647,0,0,1,1,2,2,3,3,4,4,5,5,6,6,7,7,8,8,9,9,12,12,14,14,15,15,16,16,17,17,18,18,22,22,23,23,25,25,26,26,27,27,28,28,29,29,30,30,31,31,32,32,33,33,36,36],"right_children":[2,4,6,8,10,12,14,16,18,20,-1,-1,22,-1,24,26,28,30,32,-1,-1,-1,34,36,-1,38,40,42,44,46,48,50,52,54,-1,-1,56,-1,-1,-1,-1,-1,-1,-1,-1,-1,-1,-1,-1,-1,-1,-1,-1,-1,-1,-1,-1],"split_conditions":[5.808E3,5.7365E3,5.9405E3,4.5E0,1.35E1,2.5E0,4.6485E3,2.5E0,8.5E0,5.1365E3,-5.7385315E1,8.416638E1,2.5E0,-5.6646023E1,1.95E1,3.5E0,3.5E0,5.681E3,1.05E1,4.5313038E1,-4.49E1,3.6481934E1,9E0,6.046E3,-1.9486817E0,1.825E2,2.4E1,2.5E0,5.165E3,5.1295E3,4.946E3,1.295E2,5.487E3,4.5E0,7.456934E0,6.187891E0,5.5E0,-2.7274548E1,2.6885046E1,7.594422E1,2.9582226E-1,-4.4952553E1,1.816243E1,-8.262451E-1,-9.865423E1,1.29056835E1,4.055903E1,-9.259771E1,-2.6359375E0,1.322305E1,-2.5379534E1,5.0193987E0,3.088787E1,-2.4564698E0,1.0326172E0,2.97917E1,6.2033205E0],"split_indices":[8,8,8,4,4,3,7,4,4,7,0,0,0,0,4,3,3,7,4,0,0,0,0,8,0,5,2,0,7,7,9,5,9,0,0,0,0,0,0,0,0,0,0,0,0,0,0,0,0,0,0,0,0,0,0,0,0],"split_type":[0,0,0,0,0,0,0,0,0,0,0,0,0,0,0,0,0,0,0,0,0,0,0,0,0,0,0,0,0,0,0,0,0,0,0,0,0,0,0,0,0,0,0,0,0,0,0,0,0,0,0,0,0,0,0,0,0],"sum_hessian":[1.455E3,1.439E3,1.6E1,1.431E3,8E0,1E1,6E0,1.88E2,1.243E3,4E0,4E0,4E0,6E0,1E0,5E0,9.3E1,9.5E1,1.86E2,1.057E3,2E0,2E0,2E0,4E0,4E0,1E0,5.3E1,4E1,5.4E1,4.1E1,1.79E2,7E0,9E1,9.67E2,3E0,1E0,2E0,2E0,2.9E1,2.4E1,1.6E1,2.4E1,9E0,4.5E1,2.3E1,1.8E1,1.19E2,6E1,5E0,2E0,3.3E1,5.7E1,9.41E2,2.6E1,1E0,2E0,1E0,1E0],"tree_param":{"num_deleted":"0","num_feature":"10","num_nodes":"57","size_leaf_vector":"0"}},{"base_weights":[1.260837E1,1.5813252E2,1.209857E1,2.1824731E2,-4.116333E1,-5.919994E1,1.3338321E1,6.036035E1,2.5075618E2,-8.854896E1,1.1701965E2,2.4583698E2,1.2020004E1,-1.6589491E2,-3.250164E1,1.4906445E2,1.0442627E1,6.0838478E1,4.1562585E2,-2.982329E2,1.26674595E1,-2.0063818E2,5.6025635E1,-1.6726424E2,6.095139E1,8.508765E1,-1.8079102E1,1.9356894E2,1.1375486E1,-6.1231445E1,-2.3690186E2,-1.2216504E2,1.7287044E2,-7.753967E1,3.2083545E2,-6.47813E1,1.35320015E1],"categories":[],"categories_nodes":[],"categories_segments":[],"categories_sizes":[],"default_left":[0,1,0,1,0,1,0,0,0,1,1,1,0,1,0,0,0,1,0,0,0,0,0,0,0,0,0,0,0,0,0,0,0,0,0,0,0],"id":17,"left_children":[1,3,5,7,-1,9,11,-1,-1,13,15,17,19,21,23,-1,-1,25,-1,-1,27,29,-1,-1,31,-1,-1,33,35,-1,-1,-1,-1,-1,-1,-1,-1],"loss_changes":[1.06104766E5,6.8886945E4,1.2913536E5,5.3951875E3,0E0,1.3965877E5,4.347367E5,0E0,0E0,8.997886E4,1.2104328E4,2.2599947E5,2.8922094E5,8.063311E4,1.865106E5,0E0,0E0,1.1106736E4,0E0,0E0,3.2944656E5,2.5937375E4,0E0,0E0,2.0556669E5,0E0,0E0,3.6990794E5,2.3244553E5,0E0,0E0,0E0,0E0,0E0,0E0,0E0,0E0],"parents":[2147483647,0,0,1,1,2,2,3,3,5,5,6,6,9,9,10,10,11,11,12,12,13,13,14,14,17,17,20,20,21,21,24,24,27,27,28,28],"right_children":[2,4,6,8,-1,10,12,-1,-1,14,16,18,20,22,24,-1,-1,26,-1,-1,28,30,-1,-1,32,-1,-1,34,36,-1,-1,-1,-1,-1,-1,-1,-1],"split_conditions":[4.097E3,5E0,4.3295E3,4.5E0,-1.2349E1,5.5195E3,4.362E3,1.8108107E1,7.522686E1,1.25E1,1.05E1,2.5E0,4.375E3,5.609E3,4.9725E3,4.4719337E1,3.1327882E0,9E0,1.2468776E2,-8.946988E1,4.4015E3,4.195E3,1.6807692E1,-5.017927E1,4.1925E3,2.5526295E1,-5.423731E0,4.3845E3,4.512E3,-1.8369434E1,-7.107056E1,-3.6649513E1,5.1861134E1,-2.3261902E1,9.625064E1,-1.9434391E1,4.059601E0],"split_indices":[7,3,7,0,0,9,7,0,0,4,0,3,7,8,8,0,0,0,0,0,7,7,0,0,7,0,0,7,7,0,0,0,0,0,0,0,0],"split_type":[0,0,0,0,0,0,0,0,0,0,0,0,0,0,0,0,0,0,0,0,0,0,0,0,0,0,0,0,0,0,0,0,0,0,0,0,0],"sum_hessian":[1.455E3,4E0,1.451E3,3E0,1E0,2.4E1,1.427E3,1E0,2E0,2.1E1,3E0,7E0,1.42E3,8E0,1.3E1,2E0,1E0,4E0,3E0,2E0,1.418E3,7E0,1E0,5E0,8E0,3E0,1E0,9E0,1.409E3,2E0,5E0,3E0,5E0,3E0,6E0,3.8E1,1.371E3],"tree_param":{"num_deleted":"0","num_feature":"10","num_nodes":"37","size_leaf_vector":"0"}},{"base_weights":[8.918042E0,6.227799E0,3.3385895E1,7.2157407E0,-2.5366093E2,6.0420063E1,-9.163148E1,1.7610681E2,6.6929383E0,2.149585E1,-3.278241E2,1.740754E2,3.7084797E1,-1.2458783E2,1.2077539E2,5.1306396E1,2.0060481E2,7.8637094E0,-6.532157E1,1.2298325E2,3.4769812E2,-6.205912E1,6.110694E1,-5.733817E-1,-1.683239E2,1.4333008E2,2.6555664E1,-8.556886E0,1.3088035E1,-1.3906506E2,2.9702784E1,2.7993604E2,6.935509E1,2.1960827E1,-1.4827515E2,2.627935E1,1.2609204E2,4.7680256E1,-1.450476E2,-2.0490504E2,-3.9548145E1,4.51306E0,-8.206707E1,6.974516E1,7.813281E0,-1.2815081E1,-2.631792E2,1.5295547E2,-7.795825E1,6.008667E1,3.3319028E2,-8.295361E1,1.0165267E2,-3.571384E1,1.8766455E2,-2.1568848E1,-1.7725562E2,3.9284115E1,-2.0789632E2,1.9483864E2,1.819336E1,1.14644775E2,1.1358398E1,-6.5154686E1,-2.5977692E2,-6.494889E1,-9.6468097E-1],"categories":[],"categories_nodes":[],"categories_segments":[],"categories_sizes":[],"default_left":[1,1,1,0,1,0,1,1,1,0,0,0,0,0,1,0,0,1,0,0,0,0,1,1,1,0,0,1,1,0,1,1,1,0,0,0,1,1,0,1,1,0,0,0,0,0,0,0,0,0,0,0,0,0,0,0,0,0,0,0,0,0,0,0,0,0,0],"id":18,"left_children":[1,3,5,7,9,11,13,15,17,-1,-1,19,21,23,25,-1,-1,27,29,31,-1,33,35,37,39,-1,-1,41,43,45,47,49,51,53,55,57,59,61,-1,63,65,-1,-1,-1,-1,-1,-1,-1,-1,-1,-1,-1,-1,-1,-1,-1,-1,-1,-1,-1,-1,-1,-1,-1,-1,-1,-1],"loss_changes":[9.563252E4,3.389496E5,4.92219E5,1.1440167E5,1.09079375E5,3.0915362E5,1.9705117E5,1.9371328E3,1.106258E5,0E0,0E0,1.34654E5,2.4195716E5,1.2465331E5,4.69416E3,0E0,0E0,1.10433484E5,1.512866E5,1.2367556E5,0E0,1.481336E5,1.8001162E5,5.5715758E4,7.197941E4,0E0,0E0,2.9917112E5,2.91135E5,1.8466023E5,1.4461927E5,2.6811344E4,7.7301305E4,1.11828195E5,3.289686E4,1.726186E5,2.0414988E5,1.3291475E4,0E0,8.2763E4,4.8375903E3,0E0,0E0,0E0,0E0,0E0,0E0,0E0,0E0,0E0,0E0,0E0,0E0,0E0,0E0,0E0,0E0,0E0,0E0,0E0,0E0,0E0,0E0,0E0,0E0,0E0,0E0],"parents":[2147483647,0,0,1,1,2,2,3,3,4,4,5,5,6,6,7,7,8,8,11,11,12,12,13,13,14,14,17,17,18,18,19,19,21,21,22,22,23,23,24,24,27,27,28,28,29,29,30,30,31,31,32,32,33,33,34,34,35,35,36,36,37,37,39,39,40,40],"right_children":[2,4,6,8,10,12,14,16,18,-1,-1,20,22,24,26,-1,-1,28,30,32,-1,34,36,38,40,-1,-1,42,44,46,48,50,52,54,56,58,60,62,-1,64,66,-1,-1,-1,-1,-1,-1,-1,-1,-1,-1,-1,-1,-1,-1,-1,-1,-1,-1,-1,-1,-1,-1,-1,-1,-1,-1],"split_conditions":[5.3595E3,5.3535E3,2.55E1,4.097E3,2E0,5.4175E3,3.05E1,4.5E0,5.3275E3,6.4487553E0,-9.834724E1,5.3965E3,4.706E3,4.9545E3,9E0,1.5391919E1,6.0181446E1,8.85E1,5.3355E3,4.908E3,1.0430944E2,4.5065E3,1.65E1,2.85E1,4.5E0,4.2999023E1,7.9666996E0,2.55E1,1.125E2,5.008E3,2.0165E3,1E0,5E-1,4.4375E3,5.4775E3,5.7495E3,4.8285E3,3E0,-4.3514282E1,2.5E0,3.5E0,1.3539181E0,-2.4620123E1,2.092355E1,2.3439844E0,-3.8445244E0,-7.8953766E1,4.5886642E1,-2.3387476E1,1.8026001E1,9.9957085E1,-2.4886086E1,3.0495802E1,-1.0714152E1,5.6299366E1,-6.4706545E0,-5.3176685E1,1.1785234E1,-6.2368896E1,5.8451595E1,5.458008E0,3.4393433E1,3.4075196E0,-1.9546406E1,-7.7933075E1,-1.9484669E1,-2.894043E-1],"split_indices":[8,8,4,7,3,8,4,0,8,0,0,7,7,7,0,0,0,5,7,9,0,7,4,4,3,0,0,4,5,7,1,3,3,7,8,7,9,3,0,3,0,0,0,0,0,0,0,0,0,0,0,0,0,0,0,0,0,0,0,0,0,0,0,0,0,0,0],"split_type":[0,0,0,0,0,0,0,0,0,0,0,0,0,0,0,0,0,0,0,0,0,0,0,0,0,0,0,0,0,0,0,0,0,0,0,0,0,0,0,0,0,0,0,0,0,0,0,0,0,0,0,0,0,0,0,0,0,0,0,0,0,0,0,0,0,0,0],"sum_hessian":[1.455E3,1.312E3,1.43E2,1.308E3,4E0,1.18E2,2.5E1,3E0,1.305E3,1E0,3E0,1.9E1,9.9E1,2.2E1,3E0,1E0,2E0,1.285E3,2E1,1.6E1,3E0,1.9E1,8E1,6E0,1.6E1,2E0,1E0,3.1E2,9.75E2,1.1E1,9E0,3E0,1.3E1,1E1,9E0,5.3E1,2.7E1,5E0,1E0,1.2E1,4E0,2.64E2,4.6E1,8.2E1,8.93E2,6E0,5E0,4E0,5E0,1E0,2E0,2E0,1.1E1,8E0,2E0,2E0,7E0,5.1E1,2E0,1.6E1,1.1E1,1E0,4E0,4E0,8E0,2E0,2E0],"tree_param":{"num_deleted":"0","num_feature":"10","num_nodes":"67","size_leaf_vector":"0"}},{"base_weights":[6.296718E0,1.099046E1,-5.3853273E0,1.4909624E1,-3.261271E1,-1.6604658E1,7.219318E1,1.4115127E1,3.8603296E2,-5.4711044E1,8.494381E1,-4.981621E1,1.4421916E1,3.8988853E1,1.7136118E2,5.68923E1,1.08160715E1,-1.756121E2,-3.4965393E1,1.3918306E2,-1.603278E2,-2.6114618E1,-1.4192204E2,5.459177E2,8.721315E0,5.5884576E0,1.295728E2,2.7019543E2,-4.0812695E1,2.5886848E1,1.5604208E2,-1.312491E2,1.1933844E1,6.627295E1,-2.0985188E2,-2.0093481E2,-2.350895E1,-2.8120996E1,2.2635022E2,-2.0348291E2,-3.700879E1,-5.1609825E1,1.1529605E2,-2.4347124E2,-1.41040325E1,-2.6069174E1,5.4436577E1,2.1779104E1,-1.0914319E2,2.2526929E2,1.2280843E1,3.7114258E0,3.03042E2,1.4750806E2,-1.247699E2,6.0618153E1,-6.6140335E1,3.8519614E2,9.579179E1,6.4822426E1,-2.2264218E2,2.9307983E2,1.0637929E1,-6.8410645E0,-2.3437311E2,-7.346751E1,8.405762E-1,-7.951245E1,8.872241E1,2.9899942E2,7.895117E1,-2.5845224E1,-2.4667892E2,2.317941E2,1.6813251E1,-2.7720032E2,-8.684395E1,7.535873E1,-1.9067888E2,7.826265E1,-5.06703E1,2.833755E2,3.2633827E1,-4.371147E1,6.059117E1,6.6638916E1,-1.899502E2,9.0302895E1,2.7017676E2,1.04457275E2,-2.7045898E1,1.4517432E2,4.246161E2,-1.2874512E1,-1.5777686E2],"categories":[],"categories_nodes":[],"categories_segments":[],"categories_sizes":[],"default_left":[1,1,1,1,1,0,1,0,0,0,0,1,0,0,1,0,0,0,0,0,1,1,1,0,1,0,1,1,1,1,0,1,0,0,1,0,1,0,0,0,0,0,1,1,1,1,0,0,1,1,1,0,0,0,1,0,0,0,0,0,0,0,0,0,0,0,0,0,0,0,0,0,0,0,0,0,0,0,0,0,0,0,0,0,0,0,0,0,0,0,0,0,0,0,0],"id":19,"left_children":[1,3,5,7,9,11,13,15,-1,17,19,21,23,25,27,29,31,33,35,37,39,41,43,-1,45,47,49,51,53,55,57,59,61,-1,63,-1,65,67,69,-1,-1,71,73,75,77,79,81,83,85,87,89,-1,91,-1,93,-1,-1,-1,-1,-1,-1,-1,-1,-1,-1,-1,-1,-1,-1,-1,-1,-1,-1,-1,-1,-1,-1,-1,-1,-1,-1,-1,-1,-1,-1,-1,-1,-1,-1,-1,-1,-1,-1,-1,-1],"loss_changes":[7.989532E4,1.7803884E5,3.6501716E5,2.758443E5,2.2805847E5,3.778597E5,1.6783756E5,1.3387606E5,0E0,1.6813038E5,2.0856181E5,3.8269444E5,5.7090944E5,1.23323016E5,2.83638E5,2.050051E5,1.4226006E5,9.672844E4,1.1696707E5,1.813662E5,8.434883E3,5.1790228E5,4.638395E5,0E0,3.0201534E5,5.9962008E4,1.2070219E5,7.7653E4,9.745898E4,1.7340917E5,1.8400694E5,1.398693E5,3.175027E5,0E0,4.319928E4,0E0,7.426625E4,3.70783E4,6.206103E4,0E0,0E0,6.0175575E5,2.4850997E5,8.158475E4,2.8291612E5,2.8116706E5,4.000552E5,7.381961E4,6.947578E4,1.196825E4,2.4575133E4,0E0,9.189769E4,0E0,1.2742008E4,0E0,0E0,0E0,0E0,0E0,0E0,0E0,0E0,0E0,0E0,0E0,0E0,0E0,0E0,0E0,0E0,0E0,0E0,0E0,0E0,0E0,0E0,0E0,0E0,0E0,0E0,0E0,0E0,0E0,0E0,0E0,0E0,0E0,0E0,0E0,0E0,0E0,0E0,0E0,0E0],"parents":[2147483647,0,0,1,1,2,2,3,3,4,4,5,5,6,6,7,7,9,9,10,10,11,11,12,12,13,13,14,14,15,15,16,16,17,17,18,18,19,19,20,20,21,21,22,22,24,24,25,25,26,26,27,27,28,28,29,29,30,30,31,31,32,32,34,34,36,36,37,37,38,38,41,41,42,42,43,43,44,44,45,45,46,46,47,47,48,48,49,49,50,50,52,52,54,54],"right_children":[2,4,6,8,10,12,14,16,-1,18,20,22,24,26,28,30,32,34,36,38,40,42,44,-1,46,48,50,52,54,56,58,60,62,-1,64,-1,66,68,70,-1,-1,72,74,76,78,80,82,84,86,88,90,-1,92,-1,94,-1,-1,-1,-1,-1,-1,-1,-1,-1,-1,-1,-1,-1,-1,-1,-1,-1,-1,-1,-1,-1,-1,-1,-1,-1,-1,-1,-1,-1,-1,-1,-1,-1,-1,-1,-1,-1,-1,-1,-1],"split_conditions":[4.5E0,5.2445E3,5.0585E3,5.2425E3,2.75E1,5.2755E3,2.665E2,4.619E3,1.1580989E2,4.6735E3,5.3445E3,2.55E1,5.279E3,5.368E3,3.225E2,4.571E3,4.6485E3,5.259E3,5.2625E3,5.3515E3,4.5E0,2.25E1,4.585E3,1.6377533E2,1.65E1,5.754E3,4.5E0,4E0,2.5E0,2.5E0,4.575E3,2.5E0,4.6645E3,1.9881886E1,2.5E0,-6.0280445E1,9.5E0,4.9665E3,5.5995E3,-6.1044876E1,-1.1102637E1,5.1725E3,4.727E3,4.75E1,2.0165E3,6.05E1,5.3215E3,5.223E3,4E0,3.5E0,5.5E0,1.1134278E0,5.2305E3,4.425242E1,6E0,1.8185446E1,-1.9842102E1,1.15558846E2,2.8737537E1,1.9446728E1,-6.6792656E1,8.792395E1,3.1913788E0,-2.0523195E0,-7.0311935E1,-2.2040253E1,2.5217286E-1,-2.3853737E1,2.6616724E1,8.969983E1,2.3685352E1,-7.7535677E0,-7.400368E1,6.953823E1,5.043976E0,-8.3160095E1,-2.6053186E1,2.2607618E1,-5.7203667E1,2.3478796E1,-1.5201091E1,8.501265E1,9.790149E0,-1.3113442E1,1.8177353E1,1.9991676E1,-5.698506E1,2.709087E1,8.105303E1,3.1337183E1,-8.11377E0,4.3552296E1,1.27384834E2,-3.8623536E0,-4.7333057E1],"split_indices":[3,9,9,9,4,7,5,8,0,8,8,4,7,7,5,8,8,9,9,9,0,4,8,0,4,9,0,4,4,3,8,0,8,0,4,0,4,8,9,0,0,7,8,2,1,5,7,8,0,0,3,0,9,0,4,0,0,0,0,0,0,0,0,0,0,0,0,0,0,0,0,0,0,0,0,0,0,0,0,0,0,0,0,0,0,0,0,0,0,0,0,0,0,0,0],"split_type":[0,0,0,0,0,0,0,0,0,0,0,0,0,0,0,0,0,0,0,0,0,0,0,0,0,0,0,0,0,0,0,0,0,0,0,0,0,0,0,0,0,0,0,0,0,0,0,0,0,0,0,0,0,0,0,0,0,0,0,0,0,0,0,0,0,0,0,0,0,0,0,0,0,0,0,0,0,0,0,0,0,0,0,0,0,0,0,0,0,0,0,0,0,0,0],"sum_hessian":[1.455E3,1.038E3,4.17E2,9.53E2,8.5E1,3.65E2,5.2E1,9.52E2,1E0,7.2E1,1.3E1,1.76E2,1.89E2,4E1,1.2E1,6.7E1,8.85E2,9E0,6.3E1,1.1E1,2E0,1.41E2,3.5E1,1E0,1.88E2,3E1,1E1,8E0,4E0,5.2E1,1.5E1,6E0,8.79E2,1E0,8E0,3E0,6E1,4E0,7E0,1E0,1E0,1.2E2,2.1E1,1.9E1,1.6E1,1.07E2,8.1E1,2.7E1,3E0,5E0,5E0,1E0,7E0,1E0,3E0,3.8E1,1.4E1,2E0,1.3E1,2E0,4E0,3E0,8.76E2,1E0,7E0,1.9E1,4.1E1,3E0,1E0,4E0,3E0,1.07E2,1.3E1,9E0,1.2E1,1.5E1,4E0,1.1E1,5E0,2E1,8.7E1,6E0,7.5E1,1E1,1.7E1,1E0,2E0,2E0,3E0,1E0,4E0,4E0,3E0,1E0,2E0],"tree_param":{"num_deleted":"0","num_feature":"10","num_nodes":"95","size_leaf_vector":"0"}},{"base_weights":[4.814343E0,6.0028576E1,3.9254017E0,-1.5922921E1,1.6035782E2,3.0416687E1,1.6580487E0,-9.008488E1,3.5287598E1,2.709287E1,2.4468562E2,1.0332241E1,2.9273352E2,-1.6036133E2,2.518594E0,1.4380696E1,-1.4591284E2,9.010459E1,-2.6586914E1,-9.2224365E1,7.997827E1,-2.3054443E1,3.0284454E2,-4.586588E0,1.7163368E2,3.4036963E2,-2.035962E1,-2.3614912E2,1.9405436E1,1.4151616E1,-6.144025E0,3.145996E0,1.8425049E1,7.791748E0,-8.205078E1,1.2774745E2,-1.776903E1,2.8827332E2,6.526831E1,4.8769043E1,4.4725604E2,-3.66223E2,-2.7358887E1,-5.8149414E0,3.4923096E1,7.444688E0,9.492955E1,-2.9076496E1,1.2815031E1,1.6643555E1,2.6246643E2,-9.3599106E1,3.8418243E0,7.661426E1,3.3328824E2,1.0024902E2,2.2715698E1,-5.222827E1,1.25381836E2,5.4629614E2,2.5547852E1,-5.1417725E1,1.0379395E1,2.690908E1,-1.1973652E1,-7.452832E1,1.8837228E2,-4.061647E1,5.000372E1,8.413922E1,2.786601E0],"categories":[],"categories_nodes":[],"categories_segments":[],"categories_sizes":[],"default_left":[0,0,0,0,0,0,0,1,1,1,1,1,1,1,1,1,0,0,1,0,0,0,0,1,0,1,0,0,1,1,1,0,0,0,0,1,1,1,1,1,1,0,1,0,0,1,0,1,0,0,0,0,0,0,0,0,0,0,0,0,0,0,0,0,0,0,0,0,0,0,0],"id":20,"left_children":[1,3,5,7,9,11,13,15,17,19,21,23,25,27,29,31,-1,-1,33,-1,-1,-1,-1,35,37,39,-1,41,43,45,47,-1,-1,-1,-1,49,51,53,55,57,59,-1,61,-1,-1,63,65,67,69,-1,-1,-1,-1,-1,-1,-1,-1,-1,-1,-1,-1,-1,-1,-1,-1,-1,-1,-1,-1,-1,-1],"loss_changes":[7.122805E4,1.7781694E5,8.6082914E4,5.6349094E4,1.0575019E5,5.923146E5,1.8472373E5,3.7090926E4,3.2921574E4,3.892665E4,1.0041072E5,2.5586864E5,1.2624606E5,9.995147E4,1.3270348E5,7.834613E1,0E0,0E0,1.01731875E4,0E0,0E0,0E0,0E0,1.7322953E5,9.284266E4,1.9636475E5,0E0,1.2577134E5,1.3771594E3,3.0376906E5,3.2863E5,0E0,0E0,0E0,0E0,1.30341875E5,1.4784734E5,1.2576625E4,6.6538984E3,2.9761535E4,1.9487338E5,0E0,3.2575027E3,0E0,0E0,1.968646E5,6.949271E5,3.1413462E5,2.9588716E5,0E0,0E0,0E0,0E0,0E0,0E0,0E0,0E0,0E0,0E0,0E0,0E0,0E0,0E0,0E0,0E0,0E0,0E0,0E0,0E0,0E0,0E0],"parents":[2147483647,0,0,1,1,2,2,3,3,4,4,5,5,6,6,7,7,8,8,9,9,10,10,11,11,12,12,13,13,14,14,15,15,18,18,23,23,24,24,25,25,27,27,28,28,29,29,30,30,35,35,36,36,37,37,38,38,39,39,40,40,42,42,45,45,46,46,47,47,48,48],"right_children":[2,4,6,8,10,12,14,16,18,20,22,24,26,28,30,32,-1,-1,34,-1,-1,-1,-1,36,38,40,-1,42,44,46,48,-1,-1,-1,-1,50,52,54,56,58,60,-1,62,-1,-1,64,66,68,70,-1,-1,-1,-1,-1,-1,-1,-1,-1,-1,-1,-1,-1,-1,-1,-1,-1,-1,-1,-1,-1,-1],"split_conditions":[4.3385E3,4.9585E3,4.573E3,4.5955E3,4.1615E3,4.5645E3,4.579E3,5.5E0,4.5015E3,2.0165E3,4E0,5.488E3,4.9E1,2.0165E3,1.35E1,6.5E0,-4.3773853E1,2.7031378E1,2E1,-2.766731E1,2.3993483E1,-6.916333E0,9.085336E1,4.5E0,5.5625E3,8E0,-6.107886E0,5.2075E3,4E0,1.25E1,2.15E1,9.4379884E-1,5.527515E0,2.3375244E0,-2.4615236E1,2E1,1.25E1,7.5E0,1.55E1,9.5E0,2.0165E3,-1.09866905E2,4E0,-1.7444825E0,1.0476929E1,6.5E0,5.37E3,5.2915E3,4.79E3,4.993067E0,7.873993E1,-2.8079733E1,1.1525474E0,2.2984278E1,9.998647E1,3.0074709E1,6.8147097E0,-1.5668482E1,3.761455E1,1.6388885E2,7.6643558E0,-1.5425318E1,3.1138184E0,8.072724E0,-3.5920956E0,-2.2358498E1,5.651169E1,-1.2184941E1,1.5001117E1,2.5241768E1,8.3598036E-1],"split_indices":[8,7,7,7,8,7,7,4,9,1,0,9,2,1,4,0,0,0,4,0,0,0,0,2,9,4,0,8,0,4,4,0,0,0,0,4,2,0,4,0,1,0,0,0,0,0,8,8,7,0,0,0,0,0,0,0,0,0,0,0,0,0,0,0,0,0,0,0,0,0,0],"split_type":[0,0,0,0,0,0,0,0,0,0,0,0,0,0,0,0,0,0,0,0,0,0,0,0,0,0,0,0,0,0,0,0,0,0,0,0,0,0,0,0,0,0,0,0,0,0,0,0,0,0,0,0,0,0,0,0,0,0,0,0,0,0,0,0,0,0,0,0,0,0,0],"sum_hessian":[1.455E3,2.2E1,1.433E3,1.3E1,9E0,1.12E2,1.321E3,5E0,8E0,4E0,5E0,1.05E2,7E0,6E0,1.315E3,2E0,3E0,4E0,4E0,1E0,3E0,1E0,4E0,9.7E1,8E0,6E0,1E0,4E0,2E0,5.61E2,7.54E2,1E0,1E0,3E0,1E0,8E0,8.9E1,3E0,5E0,2E0,4E0,2E0,2E0,1E0,1E0,5.19E2,4.2E1,3.41E2,4.13E2,5E0,3E0,1.9E1,7E1,1E0,2E0,2E0,3E0,1E0,1E0,3E0,1E0,1E0,1E0,2.59E2,2.6E2,1.5E1,2.7E1,2.98E2,4.3E1,5E1,3.63E2],"tree_param":{"num_deleted":"0","num_feature":"10","num_nodes":"71","size_leaf_vector":"0"}},{"base_weights":[3.6488614E0,-3.7307081E0,1.2122366E1,4.547242E0,-4.4712837E1,4.3270397E1,5.003425E0,-3.5453799E0,5.828588E1,4.1927295E2,-5.1507137E1,2.5940989E1,2.6567035E2,-2.2952023E2,8.867112E0,2.8935077E0,-1.4274109E2,9.440667E1,-8.140853E1,-1.9772345E2,-3.0716108E1,4.2209225E1,-5.1212727E1,4.0265234E2,7.55543E1,2.6936304E2,-3.2555103E2,-4.6887062E1,1.8140528E1,-9.651229E0,3.3915142E1,-2.9514368E2,-6.707655E1,-1.4966864E2,1.2486889E2,1.0305772E2,-1.4147444E2,5.4077637E1,-2.861636E2,2.5505635E2,-4.331202E1,4.7964034E0,9.410519E1,6.517951E1,-1.6294926E2,1.2585315E2,-6.2820557E1,-3.6612045E2,-1.3589519E2,7.071965E1,-8.334774E1,9.3330666E1,9.920938E0,-1.5673643E1,1.5149246E2,9.9712036E1,-2.9020972E0,-3.5811426E2,-1.4264453E2,-2.0715308E2,4.0895153E1,1.297902E2,-2.6445328E2,1.7022766E2,-2.5579851E1,8.82251E0,1.2441089E2,-1.814145E2,6.544401E1,8.802661E1,-4.085913E1,-6.46958E1,-3.239876E2,4.4267944E2,9.748071E1,-2.0582318E2,-2.8691511E1,4.2407005E1,-1.05847786E2,4.8204998E1,2.0101355E2,1.9208801E2,-6.42218E0,-2.2609538E2,8.0805504E1,1.663252E2,-5.398931E1,-1.3078392E2,5.5275757E1,3.414323E1,2.7855038E2,-2.4806445E2,1.2354321E1],"categories":[],"categories_nodes":[],"categories_segments":[],"categories_sizes":[],"default_left":[1,1,1,1,0,1,1,1,1,0,1,1,0,1,1,1,0,1,1,0,1,1,1,0,1,0,1,1,1,1,0,1,1,0,1,1,0,1,1,1,1,1,0,1,1,0,0,0,0,1,1,1,1,0,0,0,0,0,0,0,0,0,0,0,0,0,0,0,0,0,0,0,0,0,0,0,0,0,0,0,0,0,0,0,0,0,0,0,0,0,0,0,0],"id":21,"left_children":[1,3,5,7,9,11,13,15,17,-1,19,21,23,25,27,29,31,33,35,37,39,41,43,-1,45,-1,47,49,51,53,55,57,59,61,63,65,67,69,71,73,75,77,79,81,83,-1,-1,-1,-1,85,87,89,91,-1,-1,-1,-1,-1,-1,-1,-1,-1,-1,-1,-1,-1,-1,-1,-1,-1,-1,-1,-1,-1,-1,-1,-1,-1,-1,-1,-1,-1,-1,-1,-1,-1,-1,-1,-1,-1,-1,-1,-1],"loss_changes":[9.109009E4,2.6447753E5,1.5012388E5,2.82448E5,4.3456753E5,4.7871978E5,5.031229E5,5.0680303E5,4.3658466E5,0E0,3.8912506E5,1.502699E5,2.0396012E5,5.1886478E5,2.826328E5,2.1086192E5,2.684896E5,5.242742E5,2.140224E5,3.7178425E5,4.2499694E5,1.8982289E5,2.8373153E5,0E0,4.270665E4,0E0,1.17998125E4,3.4035988E5,2.8831312E5,3.7697744E5,3.7819312E5,2.5740688E4,2.80709E5,2.9094412E5,4.206287E5,8.963488E3,1.2757325E5,1.9711717E4,7.956094E4,1.0467147E5,2.5783017E5,2.4584958E5,1.9150181E5,1.0118912E5,1.875836E5,0E0,0E0,0E0,0E0,2.3551431E5,4.0177528E5,4.9477262E5,2.6861438E5,0E0,0E0,0E0,0E0,0E0,0E0,0E0,0E0,0E0,0E0,0E0,0E0,0E0,0E0,0E0,0E0,0E0,0E0,0E0,0E0,0E0,0E0,0E0,0E0,0E0,0E0,0E0,0E0,0E0,0E0,0E0,0E0,0E0,0E0,0E0,0E0,0E0,0E0,0E0,0E0],"parents":[2147483647,0,0,1,1,2,2,3,3,4,4,5,5,6,6,7,7,8,8,10,10,11,11,12,12,13,13,14,14,15,15,16,16,17,17,18,18,19,19,20,20,21,21,22,22,24,24,26,26,27,27,28,28,29,29,30,30,31,31,32,32,33,33,34,34,35,35,36,36,37,37,38,38,39,39,40,40,41,41,42,42,43,43,44,44,49,49,50,50,51,51,52,52],"right_children":[2,4,6,8,10,12,14,16,18,-1,20,22,24,26,28,30,32,34,36,38,40,42,44,-1,46,-1,48,50,52,54,56,58,60,62,64,66,68,70,72,74,76,78,80,82,84,-1,-1,-1,-1,86,88,90,92,-1,-1,-1,-1,-1,-1,-1,-1,-1,-1,-1,-1,-1,-1,-1,-1,-1,-1,-1,-1,-1,-1,-1,-1,-1,-1,-1,-1,-1,-1,-1,-1,-1,-1,-1,-1,-1,-1,-1,-1],"split_conditions":[2.85E1,1.645E2,2.265E2,1.435E2,4.349E3,2.245E2,2.285E2,1.375E2,5.247E3,1.2578189E2,1.685E2,2.195E2,5.5065E3,3.25E1,5E-1,4.951E3,5.281E3,2.5E0,2.5E0,4.958E3,1.695E2,3.5E0,2.5E0,1.2079571E2,1.35E1,8.0808914E1,5.0295E3,8.5E0,2.415E2,1.325E2,5.169E3,4.5E0,4.4045E3,5.023E3,5.3915E3,2.25E1,5.3345E3,4E0,5E-1,2.0145E3,1.715E2,2.5E0,5.7595E3,5E-1,5.3355E3,3.7755947E1,-1.8846169E1,-1.0983614E2,-4.076856E1,4.7065E3,2.55E1,3.45E1,2.425E2,-4.702093E0,4.544774E1,2.9913612E1,-8.706292E-1,-1.0743428E2,-4.279336E1,-6.2145924E1,1.2268546E1,3.8937065E1,-7.933598E1,5.1068302E1,-7.6739554E0,2.646753E0,3.732327E1,-5.4424355E1,1.9633204E1,2.6407984E1,-1.225774E1,-1.9408741E1,-9.719629E1,1.3280383E2,2.9244215E1,-6.1746956E1,-8.607453E0,1.2722102E1,-3.1754337E1,1.44615E1,6.0304066E1,5.7626408E1,-1.9266541E0,-6.782862E1,2.4241652E1,4.989756E1,-1.6196795E1,-3.9235176E1,1.6582727E1,1.02429695E1,8.356512E1,-7.441934E1,3.7062962E0],"split_indices":[2,5,5,5,7,5,5,5,8,0,5,5,7,2,3,8,8,4,3,8,5,3,3,0,4,0,7,4,5,5,8,3,7,8,7,2,7,3,3,1,5,3,7,3,8,0,0,0,0,7,4,2,5,0,0,0,0,0,0,0,0,0,0,0,0,0,0,0,0,0,0,0,0,0,0,0,0,0,0,0,0,0,0,0,0,0,0,0,0,0,0,0,0],"split_type":[0,0,0,0,0,0,0,0,0,0,0,0,0,0,0,0,0,0,0,0,0,0,0,0,0,0,0,0,0,0,0,0,0,0,0,0,0,0,0,0,0,0,0,0,0,0,0,0,0,0,0,0,0,0,0,0,0,0,0,0,0,0,0,0,0,0,0,0,0,0,0,0,0,0,0,0,0,0,0,0,0,0,0,0,0,0,0,0,0,0,0,0,0],"sum_hessian":[1.455E3,7.78E2,6.77E2,6.48E2,1.3E2,1.25E2,5.52E2,5.64E2,8.4E1,1E0,1.29E2,1.17E2,8E0,8E0,5.44E2,5.4E2,2.4E1,6.7E1,1.7E1,1.5E1,1.14E2,9.7E1,2E1,4E0,4E0,1E0,7E0,7.7E1,4.67E2,3.85E2,1.55E2,7E0,1.7E1,7E0,6E1,4E0,1.3E1,4E0,1.1E1,4E0,1.1E2,5.7E1,4E1,1E1,1E1,3E0,1E0,5E0,2E0,1.8E1,5.9E1,4.5E1,4.22E2,3.72E2,1.3E1,5.5E1,1E2,4E0,3E0,7E0,1E1,2E0,5E0,4.6E1,1.4E1,1E0,3E0,1.1E1,2E0,3E0,1E0,2E0,9E0,1E0,3E0,8E0,1.02E2,4.3E1,1.4E1,2.9E1,1.1E1,3E0,7E0,8E0,2E0,1E1,8E0,4.4E1,1.5E1,3.5E1,1E1,3E0,4.19E2],"tree_param":{"num_deleted":"0","num_feature":"10","num_nodes":"93","size_leaf_vector":"0"}},{"base_weights":[2.6674554E0,4.2870283E0,-2.5242792E1,3.1562924E0,7.714997E1,-2.6373618E2,-5.826751E0,4.460101E0,-1.3198055E2,-4.8622704E1,1.7553137E2,-3.2353442E2,-9.60931E1,-1.2008127E2,2.4738232E1,3.33802E0,1.5392412E2,5.60966E1,-2.5654083E2,1.7536848E2,-1.26541565E2,2.6138086E1,2.4696075E2,-1.659257E2,5.893347E1,8.1782135E1,-3.9059807E1,3.9571683E0,-1.3456609E2,2.767106E2,-9.943323E1,-1.004292E2,1.07487595E2,-1.5827824E2,-3.675524E2,-2.6856445E2,8.262244E1,9.177002E1,-1.18194824E2,2.9738467E2,6.3792645E1,-2.2029546E2,1.1480103E1,9.34528E1,-2.2312256E1,1.9344489E2,4.277877E1,-1.1921748E2,1.2516152E2,3.1229985E0,1.1383872E2,-2.0544499E2,-4.776538E1,4.4775308E2,1.18742966E2,1.3590332E1,-1.4163786E2,4.6527832E1,1.3261816E2,-1.7076758E2,-4.791577E1,-7.4086914E1,-2.986621E2,1.6094336E2,2.8676758E0,1.2978108E2,-1.1131592E1,6.486865E1,3.3091415E2,2.1138428E1,-2.4947015E2,4.0196777E1,-3.733496E1,1.1542749E2,2.4751709E1,3.6102505E2,7.741398E1,9.424635E1,-1.1979492E1,2.422876E1,-1.9832152E2,2.1555135E2,-6.4311035E1],"categories":[],"categories_nodes":[],"categories_segments":[],"categories_sizes":[],"default_left":[1,1,0,1,0,1,1,1,0,1,1,0,0,1,1,1,1,0,0,0,1,1,1,1,1,0,1,1,1,1,0,0,1,1,0,1,1,1,0,0,0,0,1,1,0,1,1,1,1,0,0,0,0,0,0,0,0,0,0,0,0,0,0,0,0,0,0,0,0,0,0,0,0,0,0,0,0,0,0,0,0,0,0],"id":22,"left_children":[1,3,5,7,9,11,13,15,17,19,21,-1,-1,23,25,27,29,31,33,-1,35,37,39,41,43,45,47,49,51,53,55,-1,57,59,-1,61,63,65,-1,67,-1,69,71,73,-1,75,77,79,81,-1,-1,-1,-1,-1,-1,-1,-1,-1,-1,-1,-1,-1,-1,-1,-1,-1,-1,-1,-1,-1,-1,-1,-1,-1,-1,-1,-1,-1,-1,-1,-1,-1,-1],"loss_changes":[6.592333E4,1.13205805E5,3.6891103E5,2.3968197E5,2.6838238E5,2.9059156E4,2.6488466E5,2.2505716E5,3.189413E5,1.967228E5,1.2159775E5,0E0,0E0,1.4108789E5,2.2155172E5,1.1460433E5,3.3860278E5,5.9059E4,2.9090812E4,0E0,2.5983805E5,5.821098E4,5.491753E4,1.27920625E5,1.3303333E4,1.3109178E5,3.9666588E5,1.2164378E5,2.7100883E4,1.3596669E5,2.1005375E4,0E0,1.489332E3,8.765625E1,0E0,7.1396562E3,2.4524336E4,1.709027E4,0E0,2.5310812E4,0E0,7.571103E4,7.1079707E3,1.6720312E3,0E0,1.2760744E5,7.1585914E4,2.317486E5,1.851262E5,0E0,0E0,0E0,0E0,0E0,0E0,0E0,0E0,0E0,0E0,0E0,0E0,0E0,0E0,0E0,0E0,0E0,0E0,0E0,0E0,0E0,0E0,0E0,0E0,0E0,0E0,0E0,0E0,0E0,0E0,0E0,0E0,0E0,0E0],"parents":[2147483647,0,0,1,1,2,2,3,3,4,4,5,5,6,6,7,7,8,8,9,9,10,10,13,13,14,14,15,15,16,16,17,17,18,18,20,20,21,21,22,22,23,23,24,24,25,25,26,26,27,27,28,28,29,29,30,30,32,32,33,33,35,35,36,36,37,37,39,39,41,41,42,42,43,43,45,45,46,46,47,47,48,48],"right_children":[2,4,6,8,10,12,14,16,18,20,22,-1,-1,24,26,28,30,32,34,-1,36,38,40,42,44,46,48,50,52,54,56,-1,58,60,-1,62,64,66,-1,68,-1,70,72,74,-1,76,78,80,82,-1,-1,-1,-1,-1,-1,-1,-1,-1,-1,-1,-1,-1,-1,-1,-1,-1,-1,-1,-1,-1,-1,-1,-1,-1,-1,-1,-1,-1,-1,-1,-1,-1,-1],"split_conditions":[5.598E3,5.5535E3,5.6095E3,5.525E3,5.148E3,2.016E3,7.5E0,5.506E3,5.402E3,1.05E1,9.55E1,-9.706033E1,-2.8827932E1,8.5E0,1.85E1,5.4985E3,2.15E1,5.5335E3,5.5475E3,5.2610546E1,2.5E1,3.5E0,9.5E0,5.5E0,9.5E0,4.931E3,2.05E2,5.4845E3,4E0,2.5E0,5.515E3,-3.0128761E1,5E0,3.5E0,-1.10265724E2,1.45E1,3E0,2.016E3,-3.545845E1,5.2225E3,1.9137794E1,4.959E3,1.75E1,2.0155E3,-6.693677E0,4.5E0,1.25E1,8.6E1,1.05E1,9.368996E-1,3.415162E1,-6.16335E1,-1.4329615E1,1.3432593E2,3.562289E1,4.0771E0,-4.249136E1,1.395835E1,3.978545E1,-5.1230274E1,-1.4374732E1,-2.2226074E1,-8.959863E1,4.828301E1,8.6030275E-1,3.8934326E1,-3.3394778E0,1.9460596E1,9.9274254E1,6.3415284E0,-7.484105E1,1.2059033E1,-1.1200489E1,3.462825E1,7.425513E0,1.0830752E2,2.3224194E1,2.8273907E1,-3.5938478E0,7.268628E0,-5.9496456E1,6.4665405E1,-1.9293312E1],"split_indices":[7,7,7,7,8,1,4,7,8,4,5,0,0,0,4,7,4,7,7,0,4,0,0,3,0,8,5,7,3,3,7,0,3,3,0,4,3,1,0,8,0,8,2,1,0,0,4,5,0,0,0,0,0,0,0,0,0,0,0,0,0,0,0,0,0,0,0,0,0,0,0,0,0,0,0,0,0,0,0,0,0,0,0],"split_type":[0,0,0,0,0,0,0,0,0,0,0,0,0,0,0,0,0,0,0,0,0,0,0,0,0,0,0,0,0,0,0,0,0,0,0,0,0,0,0,0,0,0,0,0,0,0,0,0,0,0,0,0,0,0,0,0,0,0,0,0,0,0,0,0,0,0,0,0,0,0,0,0,0,0,0,0,0,0,0,0,0,0,0],"sum_hessian":[1.455E3,1.376E3,7.9E1,1.356E3,2E1,5E0,7.4E1,1.344E3,1.2E1,9E0,1.1E1,3E0,2E0,1.5E1,5.9E1,1.335E3,9E0,5E0,7E0,2E0,7E0,4E0,7E0,1.2E1,3E0,3.1E1,2.8E1,1.33E3,5E0,6E0,3E0,1E0,4E0,5E0,2E0,4E0,3E0,3E0,1E0,5E0,2E0,9E0,3E0,2E0,1E0,7E0,2.4E1,1.9E1,9E0,1.321E3,9E0,2E0,3E0,2E0,4E0,1E0,2E0,2E0,2E0,4E0,1E0,1E0,3E0,1E0,2E0,2E0,1E0,1E0,4E0,1E0,8E0,2E0,1E0,1E0,1E0,2E0,5E0,1.2E1,1.2E1,7E0,1.2E1,6E0,3E0],"tree_param":{"num_deleted":"0","num_feature":"10","num_nodes":"83","size_leaf_vector":"0"}},{"base_weights":[1.9066262E0,4.0618353E0,-1.5951197E1,1.7123673E0,6.954783E1,-1.6305621E2,-6.9586043E0,3.1908507E0,-1.8282573E2,3.4713348E2,3.399963E1,-2.718571E2,4.090918E1,-2.8150597E1,4.1105003E1,9.2201096E-1,4.5815994E1,2.5968653E1,-3.263501E2,1.0427881E2,3.8177747E2,5.4712208E1,-1.7126978E2,-8.179199E0,-3.2295685E2,2.1760254E0,5.309489E1,-1.6043884E1,-1.5416103E2,1.02585526E2,-3.6971123E1,1.6209341E0,-1.6434805E2,-7.9391075E1,7.683317E1,8.9799644E1,-4.6518555E1,-2.2179956E1,1.3277174E2,-1.9323308E2,-5.268994E1,-8.349228E1,8.881499E0,-7.2453896E1,-2.9342398E2,5.808846E1,4.2436685E2,-8.514239E1,3.6717503E1,7.1126217E-1,1.2000141E2,-2.4977124E2,8.867236E1,2.016531E1,-2.4271436E2,-3.1848406E1,1.18816696E2,1.13011475E2,2.1687988E1,-1.654607E2,9.568286E1,-1.7205978E2,5.434424E1,2.1907324E2,9.515312E1,1.1746279E2,-1.2536878E2,-2.3508408E1,8.209122E1,6.989868E0,-1.3378418E2,9.891191E1,-2.6064633E2,1.4863281E1,-1.3124083E2,-7.007943E1,7.7242256E1],"categories":[],"categories_nodes":[],"categories_segments":[],"categories_sizes":[],"default_left":[1,1,1,1,1,1,0,1,1,1,1,0,1,0,1,1,1,1,0,0,0,0,1,0,0,0,0,1,1,1,1,1,1,1,1,1,1,1,1,0,0,0,0,0,0,1,0,1,1,0,0,0,0,0,0,0,0,0,0,0,0,0,0,0,0,0,0,0,0,0,0,0,0,0,0,0,0],"id":23,"left_children":[1,3,5,7,9,11,13,15,17,19,21,23,25,27,29,31,33,35,-1,-1,-1,37,39,-1,-1,-1,-1,41,43,45,47,49,51,53,55,57,59,61,63,-1,-1,65,67,69,-1,71,-1,73,75,-1,-1,-1,-1,-1,-1,-1,-1,-1,-1,-1,-1,-1,-1,-1,-1,-1,-1,-1,-1,-1,-1,-1,-1,-1,-1,-1,-1],"loss_changes":[5.6102355E4,1.9989531E5,2.0655366E5,3.43266E5,4.3224272E5,2.1084597E5,1.529231E5,1.2055465E5,3.0814572E5,2.2559375E3,1.8368856E5,7.820175E4,1.7724277E3,1.5618616E5,2.2460011E5,1.3714702E5,2.5076473E5,2.7312E4,0E0,0E0,0E0,2.3102719E5,2.3617969E2,0E0,0E0,0E0,0E0,1.6213453E5,8.114928E4,3.476256E5,7.7669375E4,1.2709346E5,1.3021684E5,2.1627281E5,2.3648875E5,2.291998E3,6.657297E4,2.3873911E5,4.0838812E4,0E0,0E0,2.3352386E5,1.7028903E5,3.5041293E4,0E0,3.380655E5,0E0,6.188204E4,4.4364367E4,0E0,0E0,0E0,0E0,0E0,0E0,0E0,0E0,0E0,0E0,0E0,0E0,0E0,0E0,0E0,0E0,0E0,0E0,0E0,0E0,0E0,0E0,0E0,0E0,0E0,0E0,0E0,0E0],"parents":[2147483647,0,0,1,1,2,2,3,3,4,4,5,5,6,6,7,7,8,8,9,9,10,10,11,11,12,12,13,13,14,14,15,15,16,16,17,17,21,21,22,22,27,27,28,28,29,29,30,30,31,31,32,32,33,33,34,34,35,35,36,36,37,37,38,38,41,41,42,42,43,43,45,45,47,47,48,48],"right_children":[2,4,6,8,10,12,14,16,18,20,22,24,26,28,30,32,34,36,-1,-1,-1,38,40,-1,-1,-1,-1,42,44,46,48,50,52,54,56,58,60,62,64,-1,-1,66,68,70,-1,72,-1,74,76,-1,-1,-1,-1,-1,-1,-1,-1,-1,-1,-1,-1,-1,-1,-1,-1,-1,-1,-1,-1,-1,-1,-1,-1,-1,-1,-1,-1],"split_conditions":[3.265E2,3.155E2,3.285E2,4.55E1,3.165E2,5.1885E3,5.498E3,2.985E2,6E0,1.15E1,5.539E3,4.8185E3,2.016E3,5.3585E3,1.95E1,2.975E2,3.5E0,1.5E0,-9.790504E1,3.1283644E1,1.1453324E2,5.289E3,5.5E0,-2.45376E0,-9.688706E1,6.5280765E-1,1.5928468E1,9.5E0,4.5E0,1.75E1,3.575E2,2.955E2,5.5E0,2.5E0,4.531E3,2.0165E3,5.5E0,1.55E1,5E-1,-5.7969925E1,-1.5806983E1,5.259E3,5.006E3,5.4495E3,-8.80272E1,1.65E1,1.2731006E2,3.325E2,2.65E1,2.1337865E-1,3.6000423E1,-7.493137E1,2.660171E1,6.0495934E0,-7.281431E1,-9.5545225E0,3.564501E1,3.3903442E1,6.506397E0,-4.963821E1,2.8704859E1,-5.161794E1,1.6303272E1,6.572198E1,2.8545938E1,3.523884E1,-3.7610638E1,-7.0525227E0,2.4627367E1,2.0969605E0,-4.0135254E1,2.9673574E1,-7.81939E1,4.4589844E0,-3.937225E1,-2.102383E1,2.3172678E1],"split_indices":[5,5,5,2,5,7,7,5,0,4,7,8,1,7,4,5,4,4,0,0,0,7,3,0,0,0,0,4,3,4,5,5,3,4,7,1,3,4,3,0,0,9,7,7,0,4,0,5,2,0,0,0,0,0,0,0,0,0,0,0,0,0,0,0,0,0,0,0,0,0,0,0,0,0,0,0,0],"split_type":[0,0,0,0,0,0,0,0,0,0,0,0,0,0,0,0,0,0,0,0,0,0,0,0,0,0,0,0,0,0,0,0,0,0,0,0,0,0,0,0,0,0,0,0,0,0,0,0,0,0,0,0,0,0,0,0,0,0,0,0,0,0,0,0,0,0,0,0,0,0,0,0,0,0,0,0,0],"sum_hessian":[1.455E3,1.299E3,1.56E2,1.255E3,4.4E1,8E0,1.48E2,1.246E3,9E0,4E0,4E1,5E0,3E0,1.03E2,4.5E1,1.184E3,6.2E1,4E0,5E0,1E0,3E0,3.7E1,3E0,1E0,4E0,1E0,2E0,9.5E1,8E0,2.5E1,2E1,1.18E3,4E0,1.2E1,5E1,2E0,2E0,1.9E1,1.8E1,2E0,1E0,2.5E1,7E1,6E0,2E0,2.3E1,2E0,1.2E1,8E0,1.172E3,8E0,3E0,1E0,8E0,4E0,1.4E1,3.6E1,1E0,1E0,1E0,1E0,6E0,1.3E1,4E0,1.4E1,4E0,2.1E1,4.9E1,2.1E1,3E0,3E0,2.1E1,2E0,4E0,8E0,2E0,6E0],"tree_param":{"num_deleted":"0","num_feature":"10","num_nodes":"77","size_leaf_vector":"0"}},{"base_weights":[1.2331245E0,4.3866124E0,-1.3222065E1,1.0836328E0,4.1797855E1,-7.429766E1,8.902651E-1,5.711604E0,-2.3578512E1,-1.1197178E2,6.908396E1,-1.3572498E1,-1.1570907E2,-4.996696E1,1.9348682E1,3.3400643E0,1.4053241E2,-5.352938E1,3.1389656E1,7.212675E1,-2.427182E2,8.80997E1,-7.854092E1,-1.3257202E2,5.5396694E1,-1.417249E2,7.6390786E0,-1.3599379E2,-1.3078589E1,3.981214E1,-8.065361E1,-3.4003808E0,2.0625738E1,-1.2401396E2,2.3904903E2,-2.7624865E1,-1.981887E2,1.9744566E2,1.0072126E1,1.6203711E2,-1.0176611E2,1.9905273E1,-2.780343E2,6.756928E1,2.1273746E2,-1.288798E2,-2.4260743E0,-2.8643555E1,-1.4332701E2,1.0428369E2,-1.5861687E2,-8.5796875E1,-2.4285632E2,1.562898E2,-5.3349022E1,-2.0688542E2,1.4612537E2,1.8129199E2,-3.899141E1,7.374304E1,-3.922423E1,-1.4509416E2,6.434907E1,-4.2898995E-1,-1.3984148E2,1.8117586E2,8.447797E0,1.5574707E1,-1.6280481E2,3.3154846E2,4.3240135E1,-1.4890099E2,1.8924916E0,-4.313252E2,-1.3834883E2,2.2163159E2,2.616504E1,-8.6908585E1,4.1413006E1,2.2789673E2,-5.0700684E1,-3.088079E2,-3.130957E1,1.8593062E2,4.5226738E1,4.5470816E2,9.540625E1,3.8998047E1,-1.7025497E2,5.0250652E1,-5.429411E1,-1.7498743E2,-7.583484E1,1.3302353E2,-1.05927246E2,-2.1393994E2,-2.3985352E1,-1.5951912E2,-3.1083008E1,-3.5236194E2,-1.06680565E2,4.571704E1,-8.95448E1,-2.737024E1,-2.5335591E2,2.326416E0,1.9328288E2,3.797798E2,3.6725098E1,4.366612E1,-8.558366E1,4.381006E1,1.7931128E2,2.6707989E1,-1.508918E2,-4.650228E0,-1.9492055E2,1.5097192E2,-4.124349E0],"categories":[],"categories_nodes":[],"categories_segments":[],"categories_sizes":[],"default_left":[1,1,1,1,1,1,1,1,1,0,1,0,1,1,1,1,1,1,0,1,1,1,0,1,1,1,0,1,1,1,0,1,0,1,1,0,1,1,0,1,0,0,1,0,0,0,1,0,1,1,1,1,0,0,1,0,1,0,1,1,1,0,0,0,0,0,0,0,0,0,0,0,0,0,0,0,0,0,0,0,0,0,0,0,0,0,0,0,0,0,0,0,0,0,0,0,0,0,0,0,0,0,0,0,0,0,0,0,0,0,0,0,0,0,0,0,0,0,0],"id":24,"left_children":[1,3,5,7,9,11,13,15,17,19,21,23,25,27,29,31,33,35,37,39,41,43,45,47,49,51,53,55,57,59,61,63,65,67,69,71,73,75,77,79,-1,-1,81,83,85,87,89,-1,91,93,95,97,99,-1,101,103,105,107,109,111,113,115,117,-1,-1,-1,-1,-1,-1,-1,-1,-1,-1,-1,-1,-1,-1,-1,-1,-1,-1,-1,-1,-1,-1,-1,-1,-1,-1,-1,-1,-1,-1,-1,-1,-1,-1,-1,-1,-1,-1,-1,-1,-1,-1,-1,-1,-1,-1,-1,-1,-1,-1,-1,-1,-1,-1,-1,-1],"loss_changes":[6.642869E4,1.477427E5,2.2502697E5,1.2568394E5,4.1472562E5,1.2165056E5,2.0091925E5,2.9592303E5,2.881442E5,3.7855988E5,2.3991672E5,1.7969738E5,9.414378E4,1.7910461E5,3.2449466E5,1.06330125E5,4.466409E5,4.1797338E5,2.1748534E5,1.2593328E5,8.900781E4,1.749815E5,3.8002695E4,4.8365938E3,1.6301589E5,1.1490959E5,6.273346E4,3.702293E5,2.1357312E5,3.5420506E5,2.616261E5,2.6630088E5,4.98993E5,2.9609445E4,2.0301031E5,3.475176E5,1.7749125E5,2.3199062E4,1.7380895E5,8.160867E4,0E0,0E0,5.1072188E4,1.6348303E5,2.4052512E5,4.8315445E4,1.6389506E4,0E0,1.6876719E3,8.658794E4,1.7213258E4,6.3613344E4,8.170594E4,0E0,2.2022588E4,1.0985581E5,2.6675148E4,1.29526375E5,1.462315E5,2.8286178E5,2.985296E5,1.3205206E5,5.4004926E4,0E0,0E0,0E0,0E0,0E0,0E0,0E0,0E0,0E0,0E0,0E0,0E0,0E0,0E0,0E0,0E0,0E0,0E0,0E0,0E0,0E0,0E0,0E0,0E0,0E0,0E0,0E0,0E0,0E0,0E0,0E0,0E0,0E0,0E0,0E0,0E0,0E0,0E0,0E0,0E0,0E0,0E0,0E0,0E0,0E0,0E0,0E0,0E0,0E0,0E0,0E0,0E0,0E0,0E0,0E0,0E0],"parents":[2147483647,0,0,1,1,2,2,3,3,4,4,5,5,6,6,7,7,8,8,9,9,10,10,11,11,12,12,13,13,14,14,15,15,16,16,17,17,18,18,19,19,20,20,21,21,22,22,23,23,24,24,25,25,26,26,27,27,28,28,29,29,30,30,31,31,32,32,33,33,34,34,35,35,36,36,37,37,38,38,39,39,42,42,43,43,44,44,45,45,46,46,48,48,49,49,50,50,51,51,52,52,54,54,55,55,56,56,57,57,58,58,59,59,60,60,61,61,62,62],"right_children":[2,4,6,8,10,12,14,16,18,20,22,24,26,28,30,32,34,36,38,40,42,44,46,48,50,52,54,56,58,60,62,64,66,68,70,72,74,76,78,80,-1,-1,82,84,86,88,90,-1,92,94,96,98,100,-1,102,104,106,108,110,112,114,116,118,-1,-1,-1,-1,-1,-1,-1,-1,-1,-1,-1,-1,-1,-1,-1,-1,-1,-1,-1,-1,-1,-1,-1,-1,-1,-1,-1,-1,-1,-1,-1,-1,-1,-1,-1,-1,-1,-1,-1,-1,-1,-1,-1,-1,-1,-1,-1,-1,-1,-1,-1,-1,-1,-1,-1,-1],"split_conditions":[2.55E1,2.35E1,2.65E1,5.3525E3,5E-1,2.5E0,1.185E2,5.3315E3,4.211E3,4.9265E3,5.1905E3,5.266E3,5.4255E3,2.75E1,5.247E3,4.9945E3,4.5E0,1.95E1,5.39E3,4.9845E3,2.5E0,5.234E3,5.3805E3,2.5E0,1.05E1,4.9805E3,5.453E3,5.371E3,2.85E1,4.5E0,5.27E3,4.972E3,5.0205E3,5E0,5.0955E3,5.4015E3,2.05E1,5.5E0,5.4545E3,8E0,-3.0529835E1,5.9715824E0,5.409E3,4.7645E3,4.944E3,4.6785E3,4E0,-8.593067E0,8E0,2.0165E3,1.15E1,4.5E0,5.069E3,4.688694E1,3.5E0,5.041E3,1.5E0,4.698E3,4.5765E3,4.9065E3,2.95E1,4.8195E3,5.3625E3,-1.28697E-1,-4.1952446E1,5.435276E1,2.5343392E0,4.6724124E0,-4.8841446E1,9.946455E1,1.2972041E1,-4.4670296E1,5.677475E-1,-1.2939757E2,-4.150465E1,6.648948E1,7.849512E0,-2.6072577E1,1.24239025E1,6.836902E1,-1.5210206E1,-9.264237E1,-9.392872E0,5.5779186E1,1.3568022E1,1.3641246E2,2.8621876E1,1.1699414E1,-5.1076496E1,1.5075196E1,-1.6288233E1,-5.249623E1,-2.2750452E1,3.990706E1,-3.1778175E1,-6.4181984E1,-7.1956058E0,-4.7855736E1,-9.324903E0,-1.0570859E2,-3.200417E1,1.3715113E1,-2.6863441E1,-8.211072E0,-7.6006775E1,6.9792485E-1,5.7984867E1,1.1393394E2,1.10175295E1,1.3099836E1,-2.5675098E1,1.3143018E1,5.3793385E1,8.012397E0,-4.526754E1,-1.3950684E0,-5.8476166E1,4.529158E1,-1.2373048E0],"split_indices":[4,4,4,7,3,3,5,7,9,7,9,8,7,4,8,7,0,4,7,8,0,8,8,0,0,7,7,7,5,3,7,7,7,4,8,7,4,3,7,0,0,0,7,8,7,7,0,0,0,1,0,3,7,0,0,9,0,7,7,8,4,7,7,0,0,0,0,0,0,0,0,0,0,0,0,0,0,0,0,0,0,0,0,0,0,0,0,0,0,0,0,0,0,0,0,0,0,0,0,0,0,0,0,0,0,0,0,0,0,0,0,0,0,0,0,0,0,0,0],"split_type":[0,0,0,0,0,0,0,0,0,0,0,0,0,0,0,0,0,0,0,0,0,0,0,0,0,0,0,0,0,0,0,0,0,0,0,0,0,0,0,0,0,0,0,0,0,0,0,0,0,0,0,0,0,0,0,0,0,0,0,0,0,0,0,0,0,0,0,0,0,0,0,0,0,0,0,0,0,0,0,0,0,0,0,0,0,0,0,0,0,0,0,0,0,0,0,0,0,0,0,0,0,0,0,0,0,0,0,0,0,0,0,0,0,0,0,0,0,0,0],"sum_hessian":[1.455E3,1.195E3,2.6E2,1.099E3,9.6E1,4.8E1,2.12E2,9.26E2,1.73E2,1.4E1,8.2E1,2E1,2.8E1,5.6E1,1.56E2,9.11E2,1.5E1,1.12E2,6.1E1,6E0,8E0,7.3E1,9E0,7E0,1.3E1,2.3E1,5E0,1.6E1,4E1,1.3E2,2.6E1,6.56E2,2.55E2,4E0,1.1E1,9.6E1,1.6E1,6E0,5.5E1,4E0,2E0,1E0,7E0,6.4E1,9E0,5E0,4E0,1E0,6E0,1.1E1,2E0,1.6E1,7E0,1E0,4E0,1.3E1,3E0,4E0,3.6E1,9.1E1,3.9E1,1.8E1,8E0,6.43E2,1.3E1,1.7E1,2.38E2,1E0,3E0,7E0,4E0,1.8E1,7.8E1,2E0,1.4E1,5E0,1E0,1.3E1,4.2E1,3E0,1E0,6E0,1E0,9E0,5.5E1,2E0,7E0,1E0,4E0,2E0,2E0,3E0,3E0,1E1,1E0,1E0,1E0,6E0,1E1,3E0,4E0,1E0,3E0,3E0,1E1,1E0,2E0,1E0,3E0,1.3E1,2.3E1,7.2E1,1.9E1,2.5E1,1.4E1,5E0,1.3E1,3E0,5E0],"tree_param":{"num_deleted":"0","num_feature":"10","num_nodes":"119","size_leaf_vector":"0"}},{"base_weights":[7.5451344E-1,-3.616855E1,2.038942E0,8.659564E0,-1.2106026E2,8.817273E1,5.448988E-1,3.9336258E1,-1.7099716E2,-4.0283203E0,-1.8452965E2,1.1770692E2,-8.892493E1,-2.7592876E1,2.7324824E0,-1.3737415E2,6.500954E1,-5.158955E1,7.658317E1,-8.414551E0,-2.2273138E2,-1.1255737E2,1.3484799E2,2.5734213E1,-2.1645117E2,1.8939624E2,-4.1007E1,-6.510055E0,9.714247E0,1.3238525E1,-1.9199121E2,1.236524E2,-5.949946E1,-6.3528687E1,-1.9165039E0,-2.6918213E1,1.4296387E1,-2.4358368E2,-2.7956543E1,5.7969727E1,1.5044446E2,5.313672E1,-1.45354E1,2.15025E2,3.062622E1,1.8430746E1,-7.59862E1,-2.5474913E1,1.9921665E1,1.01279106E2,6.73857E0,-7.419971E1,1.530214E2,-9.9917076E1,1.6001831E1,-2.661499E1,8.576965E1,8.687341E1,1.9023601E2,3.119183E2,-8.007296E0,-2.1632708E1,-1.198017E2,-1.1784518E1,-1.07658714E2,6.534311E1,-1.319851E1,1.5863148E2,-5.24737E1,5.1472683E1,-1.3588705E0],"categories":[],"categories_nodes":[],"categories_segments":[],"categories_sizes":[],"default_left":[0,1,0,0,1,1,0,1,0,0,0,0,1,0,1,1,1,1,0,1,0,0,0,1,0,1,1,1,1,0,0,0,0,0,0,0,0,0,0,1,1,0,0,0,0,1,0,1,0,1,0,0,0,0,0,0,0,0,0,0,0,0,0,0,0,0,0,0,0,0,0],"id":25,"left_children":[1,3,5,7,9,11,13,15,-1,17,19,21,23,25,27,29,31,33,-1,35,37,-1,39,41,-1,43,45,47,49,-1,-1,51,53,-1,-1,-1,-1,-1,-1,55,57,-1,-1,-1,-1,59,61,63,65,67,69,-1,-1,-1,-1,-1,-1,-1,-1,-1,-1,-1,-1,-1,-1,-1,-1,-1,-1,-1,-1],"loss_changes":[6.912459E4,1.8751955E5,1.8114411E5,1.8859844E5,1.2553175E5,1.3599752E5,8.532732E4,1.4049598E5,0E0,3.0788764E4,7.213272E4,9.806469E4,6.40584E4,2.9883847E5,8.304782E4,3.5445766E4,1.9719788E5,2.8435127E3,0E0,1.6455398E3,2.974375E4,0E0,1.5259344E4,4.0828286E3,0E0,1.7829062E4,1.9891353E5,2.782132E5,1.9903612E5,0E0,0E0,1.1594706E5,2.9063096E4,0E0,0E0,0E0,0E0,0E0,0E0,1.4040004E4,2.3946969E4,0E0,0E0,0E0,0E0,2.818301E5,1.402999E5,3.6214788E5,3.498754E5,2.1114008E5,2.576168E5,0E0,0E0,0E0,0E0,0E0,0E0,0E0,0E0,0E0,0E0,0E0,0E0,0E0,0E0,0E0,0E0,0E0,0E0,0E0,0E0],"parents":[2147483647,0,0,1,1,2,2,3,3,4,4,5,5,6,6,7,7,9,9,10,10,11,11,12,12,13,13,14,14,15,15,16,16,17,17,19,19,20,20,22,22,23,23,25,25,26,26,27,27,28,28,31,31,32,32,39,39,40,40,45,45,46,46,47,47,48,48,49,49,50,50],"right_children":[2,4,6,8,10,12,14,16,-1,18,20,22,24,26,28,30,32,34,-1,36,38,-1,40,42,-1,44,46,48,50,-1,-1,52,54,-1,-1,-1,-1,-1,-1,56,58,-1,-1,-1,-1,60,62,64,66,68,70,-1,-1,-1,-1,-1,-1,-1,-1,-1,-1,-1,-1,-1,-1,-1,-1,-1,-1,-1,-1],"split_conditions":[4.6205E3,3.5E0,4.723E3,4.599E3,4E0,2.9E1,4.996E3,4.5E0,-5.1299152E1,5.355E3,4.7745E3,4.323E3,3.5E0,4.4425E3,2.5E0,1.5E0,2.765E2,1.15E1,2.297495E1,8E0,5.3175E3,-3.3767212E1,4.545E3,4.5E0,-6.4935356E1,2.3E1,2.5E0,4.938E3,1.5E0,3.9715579E0,-5.7597366E1,4.135E3,4.5555E3,-1.9058607E1,-5.749512E-1,-8.075464E0,4.288916E0,-7.30751E1,-8.386963E0,4E0,8.5E0,1.5941016E1,-4.3606205E0,6.45075E1,9.187866E0,2.5E0,4.88E3,4.8075E3,5.21E3,5.236E3,4.76E3,-2.2259912E1,4.5906418E1,-2.9975124E1,4.8005495E0,-7.9844975E0,2.5730898E1,2.6062025E1,5.7070805E1,9.357549E1,-2.4021888E0,-6.4898124E0,-3.594051E1,-3.5353556E0,-3.2297615E1,1.9602934E1,-3.9595532E0,4.7589447E1,-1.5742111E1,1.5441806E1,-4.0766117E-1],"split_indices":[9,3,9,9,0,4,9,2,0,7,8,7,3,7,3,2,5,2,0,0,7,0,8,0,0,4,3,7,4,0,0,9,9,0,0,0,0,0,0,4,0,0,0,0,0,4,9,7,7,7,7,0,0,0,0,0,0,0,0,0,0,0,0,0,0,0,0,0,0,0,0],"split_type":[0,0,0,0,0,0,0,0,0,0,0,0,0,0,0,0,0,0,0,0,0,0,0,0,0,0,0,0,0,0,0,0,0,0,0,0,0,0,0,0,0,0,0,0,0,0,0,0,0,0,0,0,0,0,0,0,0,0,0,0,0,0,0,0,0,0,0,0,0,0,0],"sum_hessian":[1.455E3,4.8E1,1.407E3,3.2E1,1.6E1,2.3E1,1.384E3,2.8E1,4E0,6E0,1E1,2E1,3E0,9.9E1,1.285E3,3E0,2.5E1,4E0,2E0,2E0,8E0,1E0,1.9E1,2E0,1E0,5E0,9.4E1,5.53E2,7.32E2,1E0,2E0,1.7E1,8E0,3E0,1E0,1E0,1E0,7E0,1E0,4E0,1.5E1,1E0,1E0,4E0,1E0,3.5E1,5.9E1,3.22E2,2.31E2,2.2E1,7.1E2,2E0,1.5E1,5E0,3E0,1E0,3E0,7E0,8E0,2E0,3.3E1,2.7E1,3.2E1,2.77E2,4.5E1,9.7E1,1.34E2,1.6E1,6E0,1.08E2,6.02E2],"tree_param":{"num_deleted":"0","num_feature":"10","num_nodes":"71","size_leaf_vector":"0"}},{"base_weights":[5.1063925E-1,-2.916203E1,1.5429192E0,-8.405332E0,-1.3448944E2,6.229413E1,4.890766E-1,2.5633553E1,-7.831407E1,-1.6339518E1,-1.7114949E2,1.1648462E2,-1.233869E1,-8.383602E1,1.2251843E0,-1.0956848E2,4.544796E1,-1.0668302E2,6.1266438E1,-1.6289062E0,-2.2880371E1,-4.876709E1,-1.8587256E2,4.412803E1,1.4101445E2,6.383555E1,-6.498619E1,-2.1038516E2,5.7366943E0,1.3793591E2,8.2542646E-1,1.1252686E1,-1.535931E2,8.78705E1,-4.4446884E1,-1.42146E1,-1.3592644E2,-2.2622803E1,6.6471436E1,6.151533E1,1.837613E2,8.254578E1,-5.5026855E0,-1.4854712E2,3.482129E1,-2.4237231E2,-4.121826E1,7.051868E1,-4.723623E1,6.0640625E1,1.8491089E2,-1.0350897E2,1.4367533E0,-5.9359863E1,1.0998428E2,-8.393447E1,3.930078E0,-2.7054037E1,1.2151855E1,-1.4697644E2,-2.3763184E1,7.821078E1,1.5626709E1,1.2948015E2,-2.695459E1,-1.7437012E1,-1.8643816E2,-9.995605E0,8.463599E1,7.57666E0,8.897379E1,-6.792175E1,1.775293E1,-2.3820776E2,2.4951855E1,-1.6255224E1,4.07147E0],"categories":[],"categories_nodes":[],"categories_segments":[],"categories_sizes":[],"default_left":[0,0,0,1,0,1,0,1,0,1,1,0,0,1,0,1,1,0,0,0,0,0,0,1,1,1,1,1,1,0,0,0,0,0,0,1,0,0,0,1,0,0,0,1,1,0,0,1,1,0,0,1,1,0,0,0,0,0,0,0,0,0,0,0,0,0,0,0,0,0,0,0,0,0,0,0,0],"id":26,"left_children":[1,3,5,7,9,11,13,15,17,19,21,23,25,27,29,31,33,35,-1,-1,-1,-1,-1,37,39,41,43,45,47,49,51,-1,-1,53,55,57,59,-1,61,63,-1,-1,-1,65,67,-1,-1,69,71,-1,-1,73,75,-1,-1,-1,-1,-1,-1,-1,-1,-1,-1,-1,-1,-1,-1,-1,-1,-1,-1,-1,-1,-1,-1,-1,-1],"loss_changes":[4.4643004E4,1.0599578E5,9.011281E4,1.0195133E5,3.1854547E4,9.850261E4,8.607292E4,8.266916E4,6.1972625E4,2.5138983E2,1.7465938E3,1.8625844E4,4.8262645E4,1.3723112E5,7.497689E4,2.3004758E4,1.03058336E5,3.0516969E4,0E0,0E0,0E0,0E0,0E0,8.960975E3,2.2679234E4,6.9408926E3,6.3552637E4,1.7065672E4,3.0784564E4,3.310664E3,8.759441E4,0E0,0E0,6.513342E4,1.7522473E4,1.6828785E3,7.6620156E3,0E0,1.1653574E3,3.3554293E4,0E0,0E0,0E0,1.6620672E4,9.776147E3,0E0,0E0,3.9722852E3,7.9274863E3,0E0,0E0,1.4437186E5,6.3646797E4,0E0,0E0,0E0,0E0,0E0,0E0,0E0,0E0,0E0,0E0,0E0,0E0,0E0,0E0,0E0,0E0,0E0,0E0,0E0,0E0,0E0,0E0,0E0,0E0],"parents":[2147483647,0,0,1,1,2,2,3,3,4,4,5,5,6,6,7,7,8,8,9,9,10,10,11,11,12,12,13,13,14,14,15,15,16,16,17,17,23,23,24,24,25,25,26,26,27,27,28,28,29,29,30,30,33,33,34,34,35,35,36,36,38,38,39,39,43,43,44,44,47,47,48,48,51,51,52,52],"right_children":[2,4,6,8,10,12,14,16,18,20,22,24,26,28,30,32,34,36,-1,-1,-1,-1,-1,38,40,42,44,46,48,50,52,-1,-1,54,56,58,60,-1,62,64,-1,-1,-1,66,68,-1,-1,70,72,-1,-1,74,76,-1,-1,-1,-1,-1,-1,-1,-1,-1,-1,-1,-1,-1,-1,-1,-1,-1,-1,-1,-1,-1,-1,-1,-1],"split_conditions":[4.6205E3,4.599E3,4.723E3,3.5E0,4.7445E3,1.85E1,4.76E3,4.5E0,5.3935E3,4E0,1.5E0,4.545E3,4.665E3,1.55E1,4.777E3,1.5E0,2.765E2,4.833E3,1.8379932E1,-4.886719E-1,-6.8641114E0,-1.4630128E1,-5.576177E1,4E0,8.5E0,6.5E0,7E0,2.25E1,6.5E0,5.0955E3,4.803E3,3.3758059E0,-4.607793E1,4.135E3,4.418E3,7E0,5.113E3,-6.786841E0,5.346E3,4.5E0,5.5128395E1,2.4763735E1,-1.6508057E0,4E0,4.5E0,-7.27117E1,-1.2365479E1,4.5E0,1.3E1,1.8192188E1,5.547327E1,2.25E1,4.5E0,-1.780796E1,3.2995285E1,-2.5180342E1,1.1790235E0,-8.116212E0,3.6455567E0,-4.4092934E1,-7.1289554E0,2.3463234E1,4.688013E0,3.8844048E1,-8.086377E0,-5.231104E0,-5.593145E1,-2.9986818E0,2.5390797E1,2.272998E0,2.6692139E1,-2.0376526E1,5.325879E0,-7.146233E1,7.4855566E0,-4.8765674E0,1.221441E0],"split_indices":[9,9,9,3,8,4,9,2,7,0,0,8,9,2,9,2,5,8,0,0,0,0,0,4,0,0,0,4,0,8,9,0,0,9,9,0,7,0,7,0,0,0,0,0,3,0,0,0,4,0,0,4,4,0,0,0,0,0,0,0,0,0,0,0,0,0,0,0,0,0,0,0,0,0,0,0,0],"split_type":[0,0,0,0,0,0,0,0,0,0,0,0,0,0,0,0,0,0,0,0,0,0,0,0,0,0,0,0,0,0,0,0,0,0,0,0,0,0,0,0,0,0,0,0,0,0,0,0,0,0,0,0,0,0,0,0,0,0,0,0,0,0,0,0,0,0,0,0,0,0,0,0,0,0,0,0,0],"sum_hessian":[1.455E3,4.8E1,1.407E3,4.1E1,7E0,2.3E1,1.384E3,2.8E1,1.3E1,2E0,5E0,1.3E1,1E1,1.1E1,1.373E3,3E0,2.5E1,1.1E1,2E0,1E0,1E0,1E0,4E0,4E0,9E0,4E0,6E0,4E0,7E0,3E0,1.37E3,1E0,2E0,1.7E1,8E0,3E0,8E0,1E0,3E0,4E0,5E0,3E0,1E0,3E0,3E0,3E0,1E0,3E0,4E0,2E0,1E0,7E0,1.363E3,2E0,1.5E1,4E0,4E0,2E0,1E0,7E0,1E0,2E0,1E0,2E0,2E0,1E0,2E0,2E0,1E0,1E0,2E0,3E0,1E0,3E0,4E0,1.76E2,1.187E3],"tree_param":{"num_deleted":"0","num_feature":"10","num_nodes":"77","size_leaf_vector":"0"}},{"base_weights":[2.6101282E-1,9.598662E1,-6.8800576E-2,1.3697205E2,-3.397754E1,-4.742199E1,6.2567276E-1,-7.040062E1,1.13916664E2,7.076378E1,-5.1886773E-1,-1.4430148E2,-2.5192421E1,-1.0558993E2,1.2561703E2,-6.1246906E1,1.2077448E0,-1.4934814E1,-1.6337346E2,3.4928154E1,-8.171407E1,-4.5971386E1,-2.0184131E2,1.7209741E2,-2.9651464E1,-1.0350788E1,-1.8985968E2,6.418342E1,-3.9224082E-1,-1.8313379E2,-3.228589E1,-2.5800879E1,1.2450049E2,7.2469077E0,-1.1874785E2,1.4454346E1,-6.469141E1,3.303378E2,7.576748E1,-8.5109535E1,3.569043E1,-5.116657E1,1.0318646E2,-3.1662473E2,2.5583302E1,3.0909945E1,2.509876E2,-5.2416668E1,1.6664387E0],"categories":[],"categories_nodes":[],"categories_segments":[],"categories_sizes":[],"default_left":[0,1,0,0,0,1,0,1,0,0,0,1,1,1,1,0,0,0,1,1,1,1,0,1,0,0,1,1,0,0,0,0,0,0,0,0,0,0,0,0,0,0,0,0,0,0,0,0,0],"id":27,"left_children":[1,3,5,-1,-1,7,9,11,-1,13,15,17,19,21,23,25,27,-1,29,31,33,35,-1,37,39,41,43,45,47,-1,-1,-1,-1,-1,-1,-1,-1,-1,-1,-1,-1,-1,-1,-1,-1,-1,-1,-1,-1],"loss_changes":[4.5974836E4,3.1287156E4,4.7779453E4,0E0,0E0,8.587397E4,1.14991805E5,5.9842266E4,0E0,2.357561E5,1.4791783E5,1.4830984E4,4.702961E4,2.5151273E4,1.3500784E5,2.5332455E5,1.3826814E5,0E0,9.629359E3,4.1289707E4,2.3922488E4,6.590926E3,0E0,1.8837716E5,2.1156273E4,1.3966894E5,3.085173E5,2.0357323E5,1.4349642E5,0E0,0E0,0E0,0E0,0E0,0E0,0E0,0E0,0E0,0E0,0E0,0E0,0E0,0E0,0E0,0E0,0E0,0E0,0E0,0E0],"parents":[2147483647,0,0,1,1,2,2,5,5,6,6,7,7,9,9,10,10,11,11,12,12,13,13,14,14,15,15,16,16,18,18,19,19,20,20,21,21,23,23,24,24,25,25,26,26,27,27,28,28],"right_children":[2,4,6,-1,-1,8,10,12,-1,14,16,18,20,22,24,26,28,-1,30,32,34,36,-1,38,40,42,44,46,48,-1,-1,-1,-1,-1,-1,-1,-1,-1,-1,-1,-1,-1,-1,-1,-1,-1,-1,-1,-1],"split_conditions":[4.097E3,5E0,4.2995E3,4.1091614E1,-1.0193262E1,5.5835E3,4.4015E3,1.25E1,3.4175E1,4.6895E3,4.512E3,2.5E0,4.75E3,4E0,5.2145E3,5.8145E3,4.573E3,-4.4804444E0,1.05E1,1.5E0,3.5E0,8E0,-6.0552395E1,1.75E1,4.353E3,5.287E3,2E1,5.5E0,4.6605E3,-5.494014E1,-9.685767E0,-7.740264E0,3.7350147E1,2.1740725E0,-3.5624355E1,4.3363037E0,-1.9407423E1,9.910134E1,2.2730244E1,-2.5532862E1,1.07071295E1,-1.5349971E1,3.095594E1,-9.498742E1,7.6749907E0,9.272984E0,7.529628E1,-1.5725001E1,4.9993163E-1],"split_indices":[7,3,7,0,0,8,7,4,0,8,7,0,8,3,9,8,7,0,0,3,0,4,0,4,7,8,4,3,7,0,0,0,0,0,0,0,0,0,0,0,0,0,0,0,0,0,0,0,0],"split_type":[0,0,0,0,0,0,0,0,0,0,0,0,0,0,0,0,0,0,0,0,0,0,0,0,0,0,0,0,0,0,0,0,0,0,0,0,0,0,0,0,0,0,0,0,0,0,0,0,0],"sum_hessian":[1.455E3,4E0,1.451E3,3E0,1E0,2E1,1.431E3,1.8E1,2E0,2.2E1,1.409E3,6E0,1.2E1,5E0,1.7E1,3.8E1,1.371E3,1E0,5E0,6E0,6E0,4E0,1E0,1.3E1,4E0,2.8E1,1E1,3.3E1,1.338E3,4E0,1E0,4E0,2E0,2E0,4E0,1E0,3E0,4E0,9E0,2E0,2E0,2.1E1,7E0,6E0,4E0,2.9E1,4E0,5E1,1.288E3],"tree_param":{"num_deleted":"0","num_feature":"10","num_nodes":"49","size_leaf_vector":"0"}},{"base_weights":[1.9717424E-1,-1.6789785E1,2.045681E0,-2.623426E0,-1.7122058E2,-1.0695232E1,8.255282E0,5.8473225E1,-2.8873346E1,1.7873438E1,-2.6800177E2,5.382363E-1,-4.6021023E1,3.1532263E2,6.851736E0,2.0451035E1,2.347991E2,-4.743062E1,1.1377454E2,-4.4220215E1,7.400928E1,-1.5449698E2,-3.4288232E2,-1.1100981E1,8.2283516E1,2.2639503E1,-6.919812E1,3.5908203E1,3.9649136E2,2.6834967E1,-1.0197904E0,4.1685154E1,-3.4013745E2,2.6937216E2,1.368042E1,-2.2794174E1,-1.4917108E2,2.7530792E2,-1.7859934E1,7.318628E1,-1.395166E2,-1.7684619E2,-3.255005E1,-1.8693135E0,-1.789927E2,-2.9209216E2,1.1952612E2,-6.6493935E1,5.1272575E1,-1.4661992E2,-4.1780586E1,1.3634674E2,1.5086659E1,-2.8800357E2,3.4624943E-1,1.2510701E2,-6.676154E1,6.76145E1,2.9620078E2,-1.7529938E2,-2.419818E0,-2.9898953E2,-2.9381054E1,-1.269292E2,9.567432E1,-3.2367947E1,1.7865547E1,-2.4974643E2,-3.123771E1,-1.378418E0,-3.8853726E2,1.5874559E2,-4.7390076E1,-4.507975E0,-9.038672E1,6.1380506E0,9.1745964E1,-4.9941895E1,-2.5923285E2,8.72366E1,-6.37291E1,1.8658705E2,-2.775311E2,-1.9222974E2,2.2590971E1,-4.4749756E2,1.54921875E1,1.5668434E1,-2.337982E1],"categories":[],"categories_nodes":[],"categories_segments":[],"categories_sizes":[],"default_left":[1,1,0,0,1,0,0,0,1,1,1,0,0,1,1,1,1,1,1,1,0,1,0,0,1,0,0,0,0,1,1,1,0,1,0,1,1,0,1,0,0,0,0,1,1,1,1,0,1,0,0,1,1,1,1,0,0,0,0,0,0,0,0,0,0,0,0,0,0,0,0,0,0,0,0,0,0,0,0,0,0,0,0,0,0,0,0,0,0],"id":28,"left_children":[1,3,5,7,9,11,13,15,17,19,21,23,25,27,29,31,33,35,37,39,-1,41,-1,43,45,47,49,-1,-1,51,53,55,-1,57,-1,59,61,-1,63,-1,-1,-1,-1,65,67,69,71,73,75,77,79,81,83,85,87,-1,-1,-1,-1,-1,-1,-1,-1,-1,-1,-1,-1,-1,-1,-1,-1,-1,-1,-1,-1,-1,-1,-1,-1,-1,-1,-1,-1,-1,-1,-1,-1,-1,-1],"loss_changes":[4.575349E4,3.1239506E5,1.0404672E5,2.1338756E5,2.2439903E5,1.71059E5,3.7882878E5,2.6336994E5,2.5158188E5,2.0701102E4,1.50201875E4,3.1298934E5,1.6706716E5,7.648159E4,1.3860736E5,2.745092E5,4.9828094E4,2.0464119E5,2.3881394E5,4.3775945E4,0E0,7.8707344E3,0E0,4.4604253E5,6.065645E5,7.231775E4,1.594459E5,0E0,0E0,3.1830094E5,2.4825555E5,3.0689753E5,0E0,1.24498125E4,0E0,2.108651E5,2.7836344E5,0E0,9.882555E4,0E0,0E0,0E0,0E0,1.6549511E5,1.4901172E5,1.11616125E5,2.5628481E5,9.959658E3,3.779854E4,2.0479731E5,1.726319E5,5.508241E5,3.5594603E5,1.5214997E5,2.2975705E5,0E0,0E0,0E0,0E0,0E0,0E0,0E0,0E0,0E0,0E0,0E0,0E0,0E0,0E0,0E0,0E0,0E0,0E0,0E0,0E0,0E0,0E0,0E0,0E0,0E0,0E0,0E0,0E0,0E0,0E0,0E0,0E0,0E0,0E0],"parents":[2147483647,0,0,1,1,2,2,3,3,4,4,5,5,6,6,7,7,8,8,9,9,10,10,11,11,12,12,13,13,14,14,15,15,16,16,17,17,18,18,19,19,21,21,23,23,24,24,25,25,26,26,29,29,30,30,31,31,33,33,35,35,36,36,38,38,43,43,44,44,45,45,46,46,47,47,48,48,49,49,50,50,51,51,52,52,53,53,54,54],"right_children":[2,4,6,8,10,12,14,16,18,20,22,24,26,28,30,32,34,36,38,40,-1,42,-1,44,46,48,50,-1,-1,52,54,56,-1,58,-1,60,62,-1,64,-1,-1,-1,-1,66,68,70,72,74,76,78,80,82,84,86,88,-1,-1,-1,-1,-1,-1,-1,-1,-1,-1,-1,-1,-1,-1,-1,-1,-1,-1,-1,-1,-1,-1,-1,-1,-1,-1,-1,-1,-1,-1,-1,-1,-1,-1],"split_conditions":[3.65E1,5.5E0,4.9695E3,4.9655E3,1.5E0,4.882E3,4.9725E3,4.8875E3,3.05E1,5.5E0,1.5E0,4.832E3,5.3075E3,1.1E1,1.295E2,3.05E1,2.0165E3,2.45E1,2.0155E3,4.5E0,2.2202784E1,3.5E0,-1.028647E2,4.8085E3,6.95E1,4.626E3,4.9025E3,1.0772461E1,1.1894741E2,3.5E0,1.305E2,4.975E3,-1.0204124E2,7E0,4.104126E0,4.5E0,2.0145E3,8.259238E1,3.5E0,2.1955885E1,-4.185498E1,-5.305386E1,-9.765015E0,4.569E3,9.5E0,7E0,2.45E1,4.4455E3,2.9E1,4.891E3,4.912E3,1.225E2,4.5E0,2.0155E3,4.535E3,3.7532104E1,-2.0028463E1,2.0284351E1,8.886024E1,-5.2589817E1,-7.259454E-1,-8.969686E1,-8.814317E0,-3.8078762E1,2.8702295E1,-9.710384E0,5.3596644E0,-7.4923935E1,-9.371314E0,-4.135254E-1,-1.1656118E2,4.762368E1,-1.4217023E1,-1.3523926E0,-2.7116016E1,1.8414153E0,2.752379E1,-1.4982569E1,-7.776986E1,2.6170982E1,-1.911873E1,5.5976116E1,-8.325933E1,-5.7668922E1,6.777292E0,-1.3424927E2,4.6476564E0,4.7005305E0,-7.013946E0],"split_indices":[5,2,7,7,0,7,7,7,5,3,3,7,9,4,5,4,1,4,1,3,0,4,0,7,5,9,7,0,0,4,5,8,0,4,0,4,1,0,4,0,0,0,0,8,0,4,4,9,2,7,7,5,4,1,8,0,0,0,0,0,0,0,0,0,0,0,0,0,0,0,0,0,0,0,0,0,0,0,0,0,0,0,0,0,0,0,0,0,0],"split_type":[0,0,0,0,0,0,0,0,0,0,0,0,0,0,0,0,0,0,0,0,0,0,0,0,0,0,0,0,0,0,0,0,0,0,0,0,0,0,0,0,0,0,0,0,0,0,0,0,0,0,0,0,0,0,0,0,0,0,0,0,0,0,0,0,0,0,0,0,0,0,0,0,0,0,0,0,0,0,0,0,0,0,0,0,0,0,0,0,0],"sum_hessian":[1.455E3,1.42E2,1.313E3,1.31E2,1.1E1,4.3E2,8.83E2,3.9E1,9.2E1,4E0,7E0,3.27E2,1.03E2,3E0,8.8E2,3.3E1,6E0,8.2E1,1E1,2E0,2E0,4E0,3E0,2.87E2,4E1,2.6E1,7.7E1,1E0,2E0,2.48E2,6.32E2,3.2E1,1E0,5E0,1E0,6.7E1,1.5E1,4E0,6E0,1E0,1E0,3E0,1E0,2.73E2,1.4E1,3E0,3.7E1,6E0,2E1,1.9E1,5.8E1,2.3E1,2.25E2,2E0,6.3E2,1.8E1,1.4E1,1E0,4E0,7E0,6E1,6E0,9E0,3E0,3E0,1.07E2,1.66E2,9E0,5E0,1E0,2E0,3E1,7E0,2E0,4E0,1E1,1E1,1.1E1,8E0,8E0,5E1,2.1E1,2E0,7E0,2.18E2,1E0,1E0,3.83E2,2.47E2],"tree_param":{"num_deleted":"0","num_feature":"10","num_nodes":"89","size_leaf_vector":"0"}},{"base_weights":[-2.402109E-1,-8.081577E-1,4.7882355E1,3.1033594E-2,-8.05334E1,-2.3710255E1,7.173471E1,-3.8698506E-1,9.902661E1,-8.8323104E-1,-1.3353537E2,-7.193945E1,8.460327E1,1.0937347E2,2.3848145E1,4.963444E-1,-3.7555397E1,1.5093567E2,-3.194336E0,2.9559814E1,-3.1105469E1,-2.838208E1,-1.8138167E2,-1.1716309E0,-9.513818E1,2.308317E1,1.3927295E2,8.763347E0,5.7178467E1,-7.624226E-1,5.5663055E1,-9.766797E1,2.4766314E1,4.673706E1,1.7008952E2,-1.8205566E1,1.34140625E1,3.6420734E1,4.4885254E0,-8.135254E0,-3.6050457E1,8.430859E1,-9.40485E1,3.0980225E1,3.6445312E0,1.6765503E1,-4.827311E0,5.5117276E-2,-1.3883136E2,1.4303027E2,1.3420544E1,-1.8649065E1,-1.3907382E2,1.546145E2,-1.410219E1,-1.1882324E0,-6.0527344E0],"categories":[],"categories_nodes":[],"categories_segments":[],"categories_sizes":[],"default_left":[1,1,1,1,0,1,0,1,1,1,1,1,0,0,1,1,0,1,1,1,1,1,0,0,0,1,0,1,0,1,0,1,0,0,0,0,0,